#define CRNN_BUF 1600
// === CRNN: conv front-end (BN folded) -> 1-layer LSTM on the pooled map (auto-generated by tools/export_esp32.py — do not edit) ===
static const float CRNN0_W[40] = {-7.19800740e-02f, 1.92076087e-01f, -4.76734668e-01f, -4.86402452e-01f, -3.23410332e-02f, 1.05789125e+00f, -6.60173297e-01f, 2.54416704e+00f, -1.95652533e+00f, -4.23416615e-01f, -7.15563968e-02f, 2.89551988e-02f, -2.91177392e-01f, -1.38748899e-01f, -3.33213061e-01f, 2.65396595e-01f, 8.27408373e-01f, 1.25145090e+00f, -1.11612225e+00f, -5.04527926e-01f, 5.10610640e-01f, 1.05560911e+00f, -9.62548494e-01f, 1.13896298e+00f, -7.77917981e-01f, 4.49885875e-01f, 1.99315608e+00f, -1.23224580e+00f, -1.02763450e+00f, -4.96816278e-01f, -2.80043095e-01f, 2.61882067e-01f, -4.30735379e-01f, -3.30494285e-01f, -1.28491178e-01f, -1.32553089e+00f, -8.63434672e-01f, 9.62156773e-01f, 3.84024054e-01f, 4.16510582e-01f};
static const float CRNN0_B[8] = {-8.87059048e-03f, 1.89718485e-01f, -2.11488605e-02f, -4.75977920e-02f, 5.49570844e-02f, 1.59303874e-01f, 1.50410710e-02f, 1.04635641e-01f};
static const int CRNN0_INCH[1] = {1};
static const int CRNN0_OUTCH[1] = {8};
static const int CRNN0_WOFF[2] = {0, 40};
static const int CRNN0_BOFF[2] = {0, 8};
static const float CRNN0_WIH[256] = {1.39293503e-02f, -4.36413474e-02f, 4.00786042e-01f, 3.31537366e-01f, 9.69095379e-02f, 1.56381041e-01f, 4.11727548e-01f, -1.87203083e-02f, 2.02357858e-01f, -3.86558831e-01f, -1.07346542e-01f, -3.07454735e-01f, 3.34252007e-02f, 9.23774764e-02f, -6.86504766e-02f, 2.52880186e-01f, 3.40590835e-01f, 3.05415541e-01f, 1.59511000e-01f, 4.25917238e-01f, 5.72076201e-01f, 5.09448349e-01f, -1.25846669e-01f, -2.45282613e-02f, 2.19392240e-01f, 3.41877431e-01f, 3.87569517e-01f, 4.38422650e-01f, 1.61359921e-01f, -2.80277878e-01f, 1.14072330e-01f, -1.50565222e-01f, -2.93670267e-01f, 3.82752210e-01f, 3.02032232e-01f, -3.64558011e-01f, 9.65241492e-02f, -4.64598835e-02f, -3.18859704e-02f, -7.39833042e-02f, 2.63656318e-01f, 1.18890174e-01f, 2.50067443e-01f, 4.44153607e-01f, 5.18282771e-01f, 3.01894695e-01f, -2.11287096e-01f, -8.15431252e-02f, 2.75472194e-01f, 3.30079049e-01f, -1.79281116e-01f, -5.37983254e-02f, 5.06102264e-01f, 4.22168761e-01f, -5.03151938e-02f, 6.19368553e-02f, -3.11126679e-01f, -4.46851291e-02f, -2.42261887e-01f, -3.81563246e-01f, -7.93125257e-02f, 1.00707673e-01f, -1.22332789e-01f, 2.49246553e-01f, -4.38913703e-02f, 2.48624146e-01f, 4.11040097e-01f, -3.69761705e-01f, -1.61280826e-01f, 1.55872479e-01f, 2.29364887e-01f, 3.22042406e-01f, 3.42827618e-01f, -1.75814256e-02f, 3.07237804e-02f, 8.82870629e-02f, -4.03977573e-01f, -1.16868861e-01f, 1.19826496e-01f, 7.30267093e-02f, -3.97849130e-03f, 4.86745611e-02f, 4.08207923e-02f, 3.83195519e-01f, 8.59017000e-02f, 1.33148208e-01f, 3.75436693e-01f, 9.32445079e-02f, 1.43811911e-01f, 9.00450274e-02f, 2.00204805e-01f, 4.01584476e-01f, 4.82214421e-01f, 4.30284172e-01f, 4.70266551e-01f, 2.56274454e-02f, -2.92021543e-01f, -7.26361200e-02f, 2.63504833e-01f, 6.53218776e-02f, -9.81805101e-02f, -2.28249371e-01f, -3.12858254e-01f, -2.21018821e-01f, 8.70066509e-02f, 4.31521654e-01f, 3.30994129e-01f, -1.41202718e-01f, 4.60475028e-01f, -6.97440132e-02f, 9.73983184e-02f, 6.70211092e-02f, 4.24407274e-02f, -2.73144664e-03f, -2.10866675e-01f, -2.33300701e-01f, 3.66770215e-02f, 1.27825156e-01f, -4.12904471e-02f, 2.96629876e-01f, -2.56632835e-01f, -5.88873811e-02f, 3.68149996e-01f, -2.25350454e-01f, 2.69482315e-01f, 1.91465825e-01f, -2.57657588e-01f, 3.46078724e-01f, -3.18454440e-05f, 5.43737039e-02f, 3.23089212e-01f, -1.53271124e-01f, 2.23805815e-01f, -4.83005643e-02f, 2.96226203e-01f, 1.37734428e-01f, 1.66901305e-01f, 7.71203488e-02f, -8.55785385e-02f, -1.22525379e-01f, -2.99065828e-01f, 1.40465781e-01f, 2.77146041e-01f, 2.27885321e-01f, -2.33710527e-01f, -3.43488343e-02f, -2.38002598e-01f, -2.65120655e-01f, -2.83552080e-01f, 1.58840492e-01f, -1.94758236e-01f, 8.70952103e-03f, 6.51136711e-02f, 1.03978962e-01f, -2.15633005e-01f, -3.86499345e-01f, -3.55604410e-01f, 2.43077293e-01f, -7.67258629e-02f, 3.17387402e-01f, 1.99620843e-01f, 7.73959011e-02f, 6.44327551e-02f, -1.29063606e-01f, 4.08139229e-02f, -5.42240078e-03f, 6.07460774e-02f, 8.52014124e-02f, -3.80894601e-01f, -1.68222860e-01f, 1.94184139e-01f, -2.77275711e-01f, -2.25476511e-02f, 1.97067425e-01f, 2.00400632e-02f, -7.03805387e-02f, -2.93706477e-01f, 2.39629694e-03f, -2.33993664e-01f, -2.63892651e-01f, -2.66820341e-01f, -1.55646816e-01f, 1.80138033e-02f, 3.06123853e-01f, 3.27961035e-02f, 3.19618255e-01f, 2.03178197e-01f, -2.78966546e-01f, 1.65104732e-01f, -2.31633157e-01f, -1.63977623e-01f, 1.04549013e-01f, 3.45907539e-01f, 9.73582268e-02f, 9.32121128e-02f, -1.48515210e-01f, 1.34767964e-02f, -3.70491773e-01f, 4.89928246e-01f, -8.92406981e-03f, 1.70465425e-01f, -1.28167704e-01f, -3.42381038e-02f, -3.65281031e-02f, 2.01886982e-01f, -8.95089582e-02f, -4.51851413e-02f, 1.03104383e-01f, -1.80541426e-01f, 4.92400169e-01f, -1.05514806e-02f, 2.62837373e-02f, 9.92396101e-02f, 4.04887915e-01f, 3.62851322e-01f, 4.78093565e-01f, 4.44603801e-01f, -9.70100835e-02f, 2.13751912e-01f, 1.50153518e-01f, 3.16946030e-01f, 3.93253416e-01f, 1.51671067e-01f, 1.56447113e-01f, -3.17390591e-01f, 1.46654353e-01f, -1.85560063e-01f, -2.94425339e-01f, 3.54865670e-01f, -2.28794634e-01f, -3.71099599e-02f, 1.74428806e-01f, 2.04418495e-01f, 1.32831916e-01f, -1.33255586e-01f, 5.37081957e-01f, 3.66497368e-01f, 5.46037674e-01f, 8.59858096e-02f, 3.38869512e-01f, 9.10506397e-02f, 3.11990380e-01f, -7.47747347e-02f, 3.51386160e-01f, 3.80417198e-01f, 2.32274294e-01f, 9.25369561e-02f, 1.83626413e-02f, 2.86063671e-01f, -2.46540204e-01f, 1.86709851e-01f, -1.45206273e-01f, -1.95184380e-01f, 1.06802434e-01f, -1.44462124e-01f, 1.78684935e-01f};
static const float CRNN0_WHH[256] = {-7.58256838e-02f, -3.79633814e-01f, 2.32972741e-01f, 2.26320878e-01f, 3.31734598e-01f, -6.38736412e-02f, -3.00511122e-01f, 1.10132083e-01f, 2.08310895e-02f, -2.18394414e-01f, 4.33047295e-01f, 3.56276423e-01f, -4.73727239e-03f, 2.15478450e-01f, 3.08526665e-01f, 1.80773526e-01f, -2.27287620e-01f, -1.06212601e-01f, -1.54365063e-01f, -1.47447854e-01f, 4.91154671e-01f, 1.48786142e-01f, 1.14617802e-01f, 2.17412204e-01f, 3.30961496e-01f, -1.58813484e-02f, -4.25796598e-01f, -1.71571642e-01f, 2.90867329e-01f, 9.06224772e-02f, -3.39411616e-01f, 3.41795422e-02f, 1.87503278e-01f, 2.33728781e-01f, 4.84174460e-01f, 3.33783537e-01f, 3.15707140e-02f, -7.21561089e-02f, 3.57983530e-01f, 2.93765664e-01f, 2.46027159e-03f, 3.68446708e-01f, -5.58339320e-02f, 1.87508970e-01f, -2.22031996e-01f, -1.07568331e-01f, -4.09066141e-01f, 2.83488929e-01f, 2.45942585e-02f, 1.20159216e-01f, -1.34133428e-01f, 2.15099230e-01f, -7.90102687e-03f, -8.62863734e-02f, -4.44919497e-01f, 1.58190370e-01f, -3.76303852e-01f, -4.99074936e-01f, -7.26898853e-03f, 3.19095314e-01f, 3.74485373e-01f, 3.69081616e-01f, 3.25283647e-01f, -1.69763163e-01f, -1.61731988e-01f, -1.66940778e-01f, -1.78783342e-01f, 5.09089649e-01f, -5.87071180e-02f, -4.36434448e-01f, -5.95294058e-01f, 3.04520931e-02f, 2.40257099e-01f, 2.10905537e-01f, 4.14676100e-01f, 4.75103617e-01f, 5.22421896e-01f, -1.82522416e-01f, 5.25206178e-02f, 5.03414094e-01f, 2.17912327e-02f, 1.98016912e-01f, 1.08097628e-01f, 2.31104180e-01f, 1.12588838e-01f, -7.71336928e-02f, -1.54839650e-01f, 1.35978699e-01f, -1.00988485e-01f, -2.04505071e-01f, -5.31725585e-01f, 6.92771971e-02f, 2.84554124e-01f, -2.54820377e-01f, -5.04352093e-01f, 3.91375452e-01f, 1.08356923e-01f, -1.21628955e-01f, 1.07873864e-02f, 3.16337913e-01f, 2.76801705e-01f, -2.67908812e-01f, 3.98421586e-01f, 3.84105206e-01f, -1.61907710e-02f, 9.67497528e-02f, -5.06838441e-01f, -2.38128155e-01f, 4.03941423e-01f, -3.03860039e-01f, -6.10729754e-01f, 5.09750023e-02f, 1.67061090e-01f, -3.34535278e-02f, -2.40182385e-01f, 4.95962054e-01f, 6.43796548e-02f, -5.74364305e-01f, -3.36510688e-01f, 2.57503688e-01f, 4.21580374e-02f, -4.95901555e-01f, 2.06024528e-01f, -1.58221498e-01f, 5.23840003e-02f, 1.32768705e-01f, -2.38922238e-01f, 2.94575661e-01f, 4.81126338e-01f, 1.04944557e-01f, -4.71945137e-01f, -1.12539921e-02f, -1.80080850e-02f, -4.22283918e-01f, 8.67050067e-02f, -3.89528930e-01f, -1.85738817e-01f, -1.44497797e-01f, -2.93218672e-01f, 2.99285889e-01f, -5.11830807e-01f, 3.17847788e-01f, -1.58127308e-01f, -5.33136465e-02f, -6.67307749e-02f, -4.09110993e-01f, 4.90151197e-01f, 3.23289573e-01f, 4.42062110e-01f, 1.75383359e-01f, -2.34784529e-01f, 3.83815348e-01f, 8.16054195e-02f, 2.09647864e-01f, -2.49308079e-01f, 4.68474180e-02f, -3.79956961e-01f, -5.87746948e-02f, 1.04887918e-01f, -2.51745939e-01f, 2.65680179e-02f, 7.89168328e-02f, 2.08827540e-01f, -2.50757128e-01f, -1.56968206e-01f, -2.89578848e-02f, 2.19137177e-01f, 4.31086749e-01f, -3.22176777e-02f, -2.08481118e-01f, 4.03513610e-01f, -4.92489845e-01f, -1.16980366e-01f, 3.70604277e-01f, 5.45879416e-02f, 3.26359481e-01f, -4.28253680e-01f, -2.72507250e-01f, -8.71939808e-02f, 2.17516907e-02f, 7.56286159e-02f, 4.10887480e-01f, 3.59627366e-01f, 3.09788555e-01f, -1.10404745e-01f, -2.44847819e-01f, 1.28107756e-01f, 5.51587641e-02f, 3.14174503e-01f, -2.84215808e-01f, 3.02541643e-01f, 8.63687620e-02f, -1.31498173e-01f, -2.02365339e-01f, 3.78085732e-01f, 5.48192561e-01f, -1.89021289e-01f, 1.16377525e-01f, -8.64123926e-02f, 3.97654891e-01f, 1.85589179e-01f, -2.92513609e-01f, 3.40643227e-01f, 2.65287012e-01f, 1.04757436e-01f, 2.14295641e-01f, -6.57463521e-02f, 3.97072643e-01f, -2.84774035e-01f, -3.36686701e-01f, 5.79599328e-02f, -8.69387239e-02f, 1.04349814e-01f, -2.32650653e-01f, -1.19647458e-02f, 2.22901508e-01f, 4.23789322e-01f, 1.52666509e-01f, -1.74347118e-01f, -5.63223585e-02f, -1.80815965e-01f, -6.15981162e-01f, -1.01863571e-01f, 2.08839513e-02f, -7.47558549e-02f, -2.87669063e-01f, 5.13765275e-01f, 3.96309555e-01f, -1.72073632e-01f, -2.52491981e-01f, -2.05423251e-01f, 7.61087164e-02f, 1.55965135e-01f, -2.82573760e-01f, -4.32464749e-01f, -5.81303611e-03f, -1.07360065e-01f, -2.43383020e-01f, -4.61706847e-01f, -5.05838692e-02f, 2.70315766e-01f, 2.66280740e-01f, -4.85421687e-01f, 2.85253435e-01f, 3.61073203e-02f, -3.35275345e-02f, -6.78195715e-01f, -1.60802171e-01f, 1.52051598e-01f, -4.30261672e-01f, 3.55117083e-01f, -4.10655998e-02f, 1.44416094e-01f, -9.23834089e-03f, 3.23378921e-01f, 2.05260262e-01f};
static const float CRNN0_BIH[32] = {-1.90565810e-01f, -1.41714975e-01f, 5.35102524e-02f, 1.58390298e-01f, -1.66094899e-01f, 4.28650916e-01f, 3.97145376e-02f, 3.05342376e-02f, 5.25637507e-01f, 3.65179002e-01f, 5.32334030e-01f, 3.88018280e-01f, -1.94311235e-02f, 1.04695465e-02f, 1.34100348e-01f, 4.15017933e-01f, -1.34874612e-01f, -4.41674650e-01f, 2.19532520e-01f, 3.68566036e-01f, -6.24419004e-02f, -2.23911777e-01f, -2.74113208e-01f, 1.77920491e-01f, 2.00172931e-01f, -3.83877940e-02f, 3.37415576e-01f, 3.95554930e-01f, 3.27437907e-01f, 4.88133132e-01f, 2.10654601e-01f, -1.64966106e-01f};
static const float CRNN0_BHH[32] = {-1.65826380e-01f, 3.97069454e-01f, 3.30310583e-01f, 1.34593964e-01f, -2.43193164e-01f, 4.22675014e-01f, 4.53363180e-01f, 4.13191974e-01f, -4.95993868e-02f, 5.40939458e-02f, -1.06406612e-02f, 5.18295705e-01f, -6.40916228e-02f, 8.36209357e-02f, 3.45625103e-01f, -4.11062986e-02f, -1.90339446e-01f, -1.44754574e-01f, 4.06346805e-02f, -2.50964552e-01f, 3.32929254e-01f, -8.71330649e-02f, 1.71957657e-01f, 3.96807432e-01f, 4.05229658e-01f, 1.90188944e-01f, 5.66755295e-01f, 3.08823735e-01f, -1.17293544e-01f, 5.48099637e-01f, 3.47248107e-01f, -1.98161557e-01f};
static const float CRNN0_HW[16] = {-3.21234345e-01f, -3.96550357e-01f, 5.86921811e-01f, -7.91521743e-02f, -1.56466141e-01f, 2.65225589e-01f, 5.85319459e-01f, 2.16379941e-01f, 3.32375050e-01f, 1.88570842e-01f, -1.45169497e-01f, -6.53654411e-02f, -3.06423485e-01f, -6.17887557e-01f, -6.29618824e-01f, 2.86826137e-02f};
static const float CRNN0_HB[2] = {-2.43855551e-01f, 8.52455944e-02f};
static const float CRNN1_W[40] = {4.85833466e-01f, -6.79570496e-01f, -3.46486151e-01f, 6.90832734e-01f, -1.04934728e+00f, 1.09505880e+00f, -9.47161019e-01f, 1.10404408e+00f, 3.37824851e-01f, -8.52208674e-01f, 5.19395471e-01f, 9.76521894e-03f, 1.46498346e+00f, -1.23792219e+00f, 2.29281634e-01f, 3.91784869e-02f, 1.85842752e-01f, 9.35003385e-02f, 6.13491416e-01f, 4.27108929e-02f, -3.47337306e-01f, -4.19431210e-01f, -4.56675589e-02f, -1.38665944e-01f, 3.36172655e-02f, 2.46963412e-01f, 5.35124660e-01f, 3.98023129e-01f, -7.56731510e-01f, 5.51366150e-01f, 3.46514553e-01f, 1.23174989e+00f, 1.02199638e+00f, -1.02126253e+00f, -9.28358316e-01f, -3.59769225e+00f, 5.87059546e+00f, -1.29989386e+00f, 3.12214422e+00f, -3.56699347e+00f};
static const float CRNN1_B[8] = {-7.53594935e-03f, -9.17871147e-02f, 1.87357850e-02f, -1.20907612e-02f, -4.17912938e-02f, 7.83396959e-02f, 2.15183385e-02f, 6.91825598e-02f};
static const int CRNN1_INCH[1] = {1};
static const int CRNN1_OUTCH[1] = {8};
static const int CRNN1_WOFF[2] = {0, 40};
static const int CRNN1_BOFF[2] = {0, 8};
static const float CRNN1_WIH[512] = {4.21104766e-02f, 1.61398694e-01f, 8.77468213e-02f, 2.26958822e-02f, 2.54592061e-01f, 1.18620865e-01f, 5.60514987e-01f, 4.21012074e-01f, 3.57211977e-01f, 8.03242531e-03f, 3.71130466e-01f, 1.41714677e-01f, 2.14720100e-01f, 2.91181594e-01f, 2.63839155e-01f, 3.03311020e-01f, -1.84832871e-01f, -1.05375670e-01f, -7.09778816e-02f, -1.57043641e-03f, -1.93538040e-01f, -2.15820521e-01f, -2.90556364e-02f, -1.54566556e-01f, 2.27057382e-01f, 1.75470293e-01f, 3.00913215e-01f, 2.12701380e-01f, 2.17698395e-01f, 2.96778530e-01f, -4.19768654e-02f, 3.27508748e-01f, -2.38050342e-01f, 3.43940035e-02f, 5.31363189e-02f, 2.39924416e-01f, 1.84530124e-01f, 6.80217519e-02f, -3.01139355e-01f, 3.19815964e-01f, 3.57123278e-02f, 2.62938321e-01f, 1.94144905e-01f, -1.03488483e-01f, 1.42604753e-01f, 1.77747831e-01f, -8.46725553e-02f, -3.14214826e-02f, 1.71152160e-01f, 2.68533409e-01f, 2.62350142e-01f, 3.39156687e-02f, 2.89781541e-01f, 1.22228123e-01f, 5.35815418e-01f, 3.85690868e-01f, -4.18443605e-02f, 1.72126088e-02f, 6.05208158e-01f, 1.90028757e-01f, 3.09684396e-01f, 2.69128650e-01f, 3.22194040e-01f, 4.02426451e-01f, 2.55169541e-01f, -1.09272212e-01f, 1.75154239e-01f, 2.18595326e-01f, 2.22423822e-01f, 2.25888610e-01f, -1.49057791e-01f, -1.48523748e-01f, -1.15972079e-01f, 5.22494540e-02f, 2.69073308e-01f, -1.90161154e-01f, 2.12084204e-01f, -1.50327131e-01f, -1.82448104e-01f, -7.44630694e-02f, 2.59354353e-01f, 2.80210793e-01f, -2.82802619e-02f, 1.11687891e-01f, 3.09829295e-01f, 2.25640371e-01f, 3.09200108e-01f, 3.22687358e-01f, 2.69845337e-01f, 2.57429600e-01f, 1.08320907e-01f, -8.02214369e-02f, 4.12409101e-03f, 1.51709661e-01f, 1.31985486e-01f, 3.58397961e-01f, 1.45519510e-01f, 2.12693736e-01f, 4.96073008e-01f, 2.47186795e-01f, 2.37888753e-01f, 3.94552350e-01f, 1.27798632e-01f, 3.90689671e-01f, -8.07609186e-02f, -4.72835414e-02f, -2.78559923e-01f, -1.95181429e-01f, -2.02659190e-01f, -1.19360499e-01f, 1.30741447e-01f, -1.28978595e-01f, 3.73034067e-02f, 3.65199707e-02f, 7.49400677e-03f, 1.16249003e-01f, 1.82761520e-01f, 6.07401691e-03f, -1.72785074e-01f, -1.73614517e-01f, 5.02642691e-02f, -3.94578092e-02f, 7.04167932e-02f, 1.12283796e-01f, 2.90934592e-01f, 1.00564927e-01f, 3.65658015e-01f, 3.89482290e-01f, 2.77509034e-01f, 4.33367714e-02f, -1.50878832e-01f, 2.31761515e-01f, 4.67596650e-02f, 3.21693122e-02f, -2.18700573e-01f, -1.21810779e-01f, -6.58307895e-02f, 3.50037009e-01f, -1.57194361e-01f, -4.88052443e-02f, 1.83171302e-01f, 1.65470541e-02f, 5.72143570e-02f, -7.48901814e-02f, -1.38725877e-01f, 3.18866298e-02f, 2.52504766e-01f, -1.39011174e-01f, 1.30953059e-01f, 2.02011690e-01f, 1.99969560e-01f, -1.64512008e-01f, 1.92682266e-01f, -2.05108911e-01f, 1.93262100e-01f, -4.37255092e-02f, 2.97391236e-01f, 4.51576337e-02f, -4.03913148e-02f, -1.26328170e-01f, 1.20789714e-01f, 2.58032054e-01f, 2.04063743e-01f, 1.40613124e-01f, -1.49797514e-01f, 2.78107405e-01f, 5.36850750e-01f, 3.01214129e-01f, 2.25051671e-01f, -2.82117771e-03f, 3.62919979e-02f, 4.50831443e-01f, -1.53054997e-01f, 4.29100364e-01f, -1.00851767e-01f, -9.55849662e-02f, 1.46897405e-01f, -1.31882764e-02f, 2.13413954e-01f, 3.05773914e-01f, 1.70346722e-01f, 4.01040465e-01f, 1.83569521e-01f, -7.02200681e-02f, 3.05732965e-01f, 1.47025198e-01f, 1.06322646e-01f, 2.79768586e-01f, -1.18451513e-01f, 3.92779142e-01f, 2.42041826e-01f, -1.26589403e-01f, -1.42556801e-01f, 4.77097146e-02f, 2.86410600e-01f, 6.12588637e-02f, -5.18014245e-02f, 1.10275149e-01f, -1.67401537e-01f, -8.81758481e-02f, -9.46154967e-02f, 9.62635428e-02f, 1.57489017e-01f, -2.89953798e-01f, 1.10278174e-01f, -4.97082956e-02f, -1.32538786e-03f, -2.41927296e-01f, 3.37368846e-01f, 1.68141499e-01f, 5.28075881e-02f, -2.41344403e-02f, 4.63323742e-01f, 2.26155341e-01f, -5.15780970e-02f, 3.97779465e-01f, 1.77363321e-01f, -6.38132691e-02f, 2.39445314e-01f, -5.39319552e-02f, 3.51379275e-01f, -3.07082348e-02f, 1.63526163e-01f, 5.52641153e-02f, 1.25393391e-01f, 4.19015765e-01f, 1.23127215e-01f, 9.08910111e-02f, -1.43421635e-01f, 2.06213132e-01f, 4.07075733e-02f, 5.28603606e-02f, -8.94646645e-02f, 6.86560525e-03f, 1.27201244e-01f, 6.56620264e-02f, -1.35149002e-01f, -1.83721587e-01f, -3.56826574e-01f, -1.15864843e-01f, 3.58443484e-02f, 7.46686161e-02f, 1.53149096e-02f, -1.23154350e-01f, 2.82390326e-01f, 1.79791212e-01f, 5.76639641e-03f, -1.56191662e-01f, 3.68293859e-02f, 9.69651490e-02f, -3.26744206e-02f, -6.02619238e-02f, 1.44525349e-01f, 3.94599847e-02f, 1.05084397e-01f, 3.59999873e-02f, -5.93908541e-02f, -2.01404601e-01f, -3.66619587e-01f, 1.15278080e-01f, 2.34652776e-02f, 1.13914125e-01f, -1.62657946e-01f, -1.44002512e-01f, -2.66376048e-01f, -5.18483249e-03f, 2.74522692e-01f, -2.42363900e-01f, -1.52254805e-01f, 2.17330500e-01f, 1.93689123e-01f, 1.58116773e-01f, -4.77294475e-02f, 3.62643041e-02f, 5.86257502e-02f, -6.13115951e-02f, 1.24790385e-01f, -4.50633913e-02f, -4.16155905e-02f, 1.26205221e-01f, -1.90027416e-01f, 1.33507356e-01f, 3.12430561e-01f, 2.52602458e-01f, 1.91347510e-01f, -3.12399748e-03f, 1.42031431e-01f, 3.25121544e-02f, -2.43432298e-02f, -1.11788571e-01f, 1.58359662e-01f, 4.98601645e-02f, -2.01393440e-02f, -1.48568451e-01f, -4.00142670e-02f, 3.46438468e-01f, -1.50555996e-02f, -6.69744536e-02f, -4.72995229e-02f, -1.65464029e-01f, -2.05360398e-01f, -1.78527683e-01f, 2.61223614e-01f, 1.14413202e-01f, -1.43573850e-01f, -4.11204249e-02f, 2.04094261e-01f, 2.34266534e-01f, 1.92487791e-01f, 1.22087933e-01f, 1.51431888e-01f, 9.31064903e-07f, -1.21654376e-01f, -2.73757577e-01f, 1.26199156e-01f, -5.54080382e-02f, 1.48584649e-01f, -8.64822709e-04f, -3.08337063e-01f, -1.89714924e-01f, 7.59693235e-02f, -2.58527813e-03f, -9.51701850e-02f, 4.20846306e-02f, 9.27584129e-04f, -7.01395273e-02f, 2.36392558e-01f, 1.25665158e-01f, -1.51777774e-01f, 1.95800945e-01f, 1.64376318e-01f, 1.30974175e-02f, -8.21464285e-02f, -2.08114386e-01f, 2.71496862e-01f, 6.67542368e-02f, -1.92641914e-01f, 1.26339331e-01f, 1.84115961e-01f, 1.34662697e-02f, -7.68376440e-02f, -1.42858669e-01f, 1.78142518e-01f, 2.86062181e-01f, 1.15715386e-02f, -2.16049049e-02f, 3.33752304e-01f, 1.06672995e-01f, 1.78430691e-01f, 1.75838470e-01f, 1.78812191e-01f, 9.07915011e-02f, -1.30916312e-01f, 9.71804783e-02f, -4.72130030e-02f, -2.85021424e-01f, -6.15772083e-02f, -3.04741591e-01f, -1.44719437e-01f, -2.06038728e-01f, 1.88602820e-01f, 9.69638005e-02f, 1.82235837e-01f, 2.35339627e-01f, 8.55883434e-02f, -1.51353693e-02f, 3.27276886e-01f, 3.82271349e-01f, -2.38465935e-01f, 2.73987621e-01f, -8.56037438e-02f, 1.51343993e-03f, -2.69485861e-01f, 3.56028289e-01f, 7.68452361e-02f, 1.00261323e-01f, 1.81405228e-02f, 7.61311799e-02f, -1.36616543e-01f, -2.01331735e-01f, 5.85653707e-02f, -7.11203143e-02f, -3.38915028e-02f, -1.76405922e-01f, 1.52647868e-01f, 1.91057086e-01f, 3.74693871e-01f, -1.12624176e-01f, 2.66917318e-01f, 1.45681858e-01f, 4.87588376e-01f, 3.80435258e-01f, -1.33236855e-01f, 2.37740651e-01f, -2.55462170e-01f, 1.29135281e-01f, 2.87291169e-01f, 1.22253165e-01f, -1.90025151e-01f, 8.70142058e-02f, -1.46531388e-01f, -2.42173240e-01f, 9.55827534e-02f, 1.26418650e-01f, 2.72176951e-01f, -2.88663991e-02f, 1.62412509e-01f, 1.15171961e-01f, -3.17434929e-02f, 2.97769569e-02f, 3.62340897e-01f, 1.81304157e-01f, 2.35444680e-01f, 6.13303669e-02f, 3.36041123e-01f, 2.59133488e-01f, 7.28296340e-02f, 3.12843412e-01f, 1.93728246e-02f, 1.20868616e-01f, 7.86764324e-02f, 4.00744826e-02f, 1.40025884e-01f, 5.70207983e-02f, 3.83571804e-01f, 3.78994018e-01f, 4.66138512e-01f, 3.68614197e-01f, -8.26748759e-02f, 2.78776884e-01f, 2.86677599e-01f, -2.59271334e-03f, 2.13873118e-01f, 2.59317197e-02f, 2.60676682e-01f, 1.99477702e-01f, 2.98664957e-01f, 1.87840424e-02f, 2.63311272e-03f, 3.85021836e-01f, 1.57753050e-01f, 3.15553248e-01f, 3.07504386e-01f, 1.18235424e-01f, 2.47080341e-01f, -1.42245134e-02f, 1.94932207e-01f, 3.24392229e-01f, 1.57844365e-01f, -1.27114385e-01f, -1.03393435e-01f, 8.28463435e-02f, -1.73346281e-01f, -1.88825116e-01f, -1.75102159e-01f, -1.20405540e-01f, 2.26007868e-03f, -2.32247278e-01f, -1.32300586e-01f, -3.80003244e-01f, 2.81564623e-01f, -1.85238108e-01f, -1.52130261e-01f, 2.80232988e-02f, -1.55631915e-01f, 5.56598902e-02f, 5.98146804e-02f, -3.65662903e-01f, -1.63974501e-02f, -2.68791080e-01f, -2.40053549e-01f, -9.68434960e-02f, -8.65625888e-02f, 3.82461883e-02f, 3.88800234e-01f, 1.99519724e-01f, 6.70940205e-02f, 5.48328869e-02f, 3.31353545e-01f, 2.74460703e-01f, 5.26271760e-03f, 1.15692489e-01f, 3.95316303e-01f, 3.60070825e-01f, 2.20576137e-01f, 3.81832778e-01f, 1.82305008e-01f, -5.85615821e-03f, 1.85282916e-01f, -1.35973215e-01f, -3.06103498e-01f, 1.40402734e-01f, 9.97197330e-02f, -2.78803170e-01f, -2.92012960e-01f, -2.75857836e-01f, 1.59580354e-02f, 4.97549549e-02f, -2.59565353e-01f, 1.53781861e-01f, 1.71494812e-01f, 8.73821229e-02f, -7.95637220e-02f, -2.29123071e-01f, 2.69856125e-01f, -2.23355949e-01f, -1.46539286e-01f, -1.47321979e-02f, 4.12111223e-01f, -1.29957989e-01f, -1.65374175e-01f, -2.13932112e-01f};
static const float CRNN1_WHH[1024] = {-8.70352909e-02f, 4.39520441e-02f, 2.91962996e-02f, -7.14255823e-03f, -4.27281559e-02f, -1.33798897e-01f, -1.52797565e-01f, -2.10315630e-01f, 2.05232397e-01f, -1.09799929e-01f, 1.95336729e-01f, 1.33638129e-01f, -2.97766417e-01f, 5.41877188e-03f, -2.41590180e-02f, -2.05579221e-01f, 3.79040055e-02f, -1.01896264e-01f, 8.24921206e-02f, -1.27107175e-02f, -8.17445368e-02f, -1.10888660e-01f, -4.12412062e-02f, 1.31111249e-01f, 1.41953096e-01f, -2.72424310e-01f, 5.23296930e-02f, 3.15213054e-01f, 7.54580945e-02f, 6.11544609e-01f, 1.25108123e-01f, 1.19756192e-01f, 2.48754069e-01f, 1.18202567e-01f, 1.93713959e-02f, 1.77840605e-01f, 7.78126866e-02f, 5.08169718e-02f, -1.36507243e-01f, 3.95821303e-01f, 2.69712776e-01f, 1.76825223e-03f, 3.16678077e-01f, -3.26187201e-02f, 4.24551852e-02f, 4.16352823e-02f, 1.31309152e-01f, 1.51308402e-01f, -2.35548645e-01f, 1.13103271e-01f, 8.09388235e-02f, 6.28619269e-02f, -1.89354077e-01f, -5.27426749e-02f, 1.97810978e-01f, 9.58765820e-02f, 2.56617546e-01f, 9.43055842e-03f, 1.81096464e-01f, 2.12217689e-01f, -6.45122305e-02f, -2.26826239e-02f, 1.59412026e-01f, -4.05869819e-02f, 9.34030563e-02f, 2.05763802e-01f, -1.25910804e-01f, 2.49175951e-01f, -2.92776674e-01f, 8.24076906e-02f, 2.58878589e-01f, -1.48620725e-01f, -6.13674149e-03f, -1.50481179e-01f, -2.90835351e-01f, 1.07337479e-02f, -8.86650458e-02f, -2.50485808e-01f, -2.93569505e-01f, -8.00088271e-02f, 2.86709480e-02f, 1.10121409e-03f, 2.03218564e-01f, 3.49952102e-01f, 8.77831876e-02f, -9.61681455e-03f, -1.32159472e-01f, 1.75825685e-01f, -1.20733745e-01f, -1.52961269e-01f, -1.21840693e-01f, 2.47407332e-01f, -3.29135448e-01f, 1.77925065e-01f, -6.04924597e-02f, -2.70507067e-01f, -7.33746812e-02f, 3.23918015e-01f, 4.81961854e-02f, 2.37118602e-01f, -2.73769200e-01f, 1.26023382e-01f, -1.01385333e-01f, -2.21960917e-01f, 2.20238477e-01f, -9.02474746e-02f, 3.40027213e-01f, 1.82568636e-02f, -2.90016949e-01f, 9.89612788e-02f, 1.67683393e-01f, -7.57045075e-02f, -2.35472605e-01f, 1.20991796e-01f, 4.57834937e-02f, 1.71168625e-01f, -1.76787242e-01f, -2.82295763e-01f, 1.40581161e-01f, -1.12860590e-01f, 2.57505357e-01f, 1.86865911e-01f, -2.27055818e-01f, -5.57965003e-02f, -1.30827706e-02f, -2.43649244e-01f, 1.05749391e-01f, -1.77595973e-01f, 4.03427705e-02f, -1.28634140e-01f, 2.04488069e-01f, -2.65981257e-01f, -1.68763161e-01f, 1.98955648e-02f, -2.71345556e-01f, -9.59269479e-02f, 1.83799580e-01f, -8.49737450e-02f, 2.63659775e-01f, 1.44474924e-01f, -2.21065735e-03f, -8.82960409e-02f, -3.17048281e-02f, 3.67474258e-02f, -1.71329051e-01f, -2.57535815e-01f, 1.25797033e-01f, 3.51816356e-01f, 7.47073069e-02f, -3.06870490e-01f, 6.54229745e-02f, -1.22878633e-01f, 1.49757579e-01f, -2.18788058e-01f, -3.19666564e-01f, 1.32285327e-01f, -1.78308919e-01f, 1.03434259e-02f, -1.55518338e-01f, -1.07489880e-02f, 3.38865608e-01f, 1.23544604e-01f, 2.09329128e-01f, -2.23930821e-01f, 2.44907498e-01f, 3.15770030e-01f, -1.21851988e-01f, -4.24086750e-02f, 7.34869540e-02f, -1.31858349e-01f, -1.71488542e-02f, 2.44847089e-01f, 4.65975069e-02f, -3.48431394e-02f, 8.43789652e-02f, 4.32858244e-02f, 6.06165305e-02f, -1.90397382e-01f, -2.63762311e-03f, -1.06919771e-02f, -3.12190980e-01f, -3.00661564e-01f, 3.22327226e-01f, 8.10299651e-04f, -2.00726792e-01f, 8.86738971e-02f, 1.76363766e-01f, 3.04471880e-01f, 3.19551155e-02f, 1.31932810e-01f, 2.08365321e-01f, 1.98564142e-01f, 7.97164962e-02f, -9.44650844e-02f, -5.07165752e-02f, 3.08801055e-01f, 7.27569014e-02f, -1.05647026e-02f, -3.72906611e-03f, -1.05639599e-01f, -6.12400435e-02f, -2.28748038e-01f, 1.04173012e-01f, -8.10049400e-02f, -1.55650675e-01f, 2.08875522e-01f, -1.49378881e-01f, -7.06190467e-02f, -9.52003349e-04f, 2.12704331e-01f, 1.21822357e-02f, -5.05674630e-03f, -9.92865413e-02f, 3.40100437e-01f, 1.60469517e-01f, -5.60613610e-02f, 1.63178325e-01f, -1.11419149e-01f, -1.37880668e-01f, -1.58291548e-01f, -8.13954845e-02f, -8.98341611e-02f, -1.69947781e-02f, -1.57296345e-01f, -4.56149220e-01f, -2.75430381e-01f, -2.24081770e-01f, 9.96581465e-03f, -1.05155334e-02f, -7.83576742e-02f, -1.14428341e-01f, -1.65463403e-01f, 3.58992592e-02f, -8.72171149e-02f, 9.01216790e-02f, 2.42650688e-01f, 2.54978854e-02f, -5.85158430e-02f, -1.47937849e-01f, -8.27561021e-02f, 1.50692880e-01f, 2.77017862e-01f, 2.20867544e-01f, 2.28635684e-01f, -2.44675413e-01f, -4.53856029e-02f, -2.04061642e-02f, 2.58956373e-01f, -1.38623506e-01f, -1.69172838e-01f, 4.18903269e-02f, -7.50963390e-02f, 2.22306728e-01f, 2.45502397e-01f, 1.63032822e-02f, 3.31446975e-02f, 1.49009198e-01f, 3.60717088e-01f, 2.25897029e-01f, 1.22030929e-01f, 8.58055279e-02f, 9.41495076e-02f, -1.48191065e-01f, 1.93684530e-02f, 1.60560295e-01f, -2.28460997e-01f, -1.50060028e-01f, 7.58492574e-02f, -2.61170149e-01f, -1.53541967e-01f, 7.39133954e-02f, 5.67971691e-02f, 1.34369150e-01f, -2.00828701e-01f, 2.73180574e-01f, -4.12933677e-02f, 1.61346763e-01f, -3.28085005e-01f, -1.04492515e-01f, 1.64455742e-01f, 2.45796457e-01f, -3.04024100e-01f, -5.14178872e-02f, 7.10942298e-02f, 1.02315195e-01f, -5.15252687e-02f, -1.65467650e-01f, -1.27978683e-01f, 9.16554034e-02f, 2.45010138e-01f, -1.48288295e-01f, -8.21375474e-02f, -1.74936235e-01f, 7.02172667e-02f, -2.69141167e-01f, 2.19090596e-01f, -9.40388665e-02f, -1.64124832e-01f, -3.84589843e-02f, -3.57181907e-01f, 3.41476709e-01f, 2.18769535e-01f, -1.17773473e-01f, 6.89534694e-02f, -2.02874959e-01f, 1.50895447e-01f, 3.45721431e-02f, -7.43170679e-02f, -9.19728726e-02f, 2.36692149e-02f, -3.97877805e-02f, -7.58339241e-02f, 2.40346119e-01f, -9.71333683e-02f, -1.03377551e-01f, 7.06222579e-02f, -3.21236134e-01f, 7.30392581e-04f, -2.20821559e-01f, -2.94295162e-01f, -2.92369813e-01f, -1.27010971e-01f, 4.94286381e-02f, 3.74817163e-01f, 1.05368286e-01f, -3.46877426e-01f, 3.46892506e-01f, 3.19961570e-02f, 2.74888705e-02f, 2.59629451e-02f, 5.56225032e-02f, 4.10414994e-01f, -3.98038141e-02f, 1.17681481e-01f, -6.41972870e-02f, -1.00360185e-01f, -8.87675211e-02f, 4.10211653e-01f, -6.44037351e-02f, 1.18181057e-01f, -3.60528409e-01f, -1.31418437e-01f, 2.15703081e-02f, -2.56898224e-01f, 3.28276306e-01f, -2.69137621e-01f, -2.42280364e-02f, 9.48659182e-02f, -3.34953308e-01f, 9.79475901e-02f, 7.78842345e-02f, -6.33092150e-02f, 1.79066360e-01f, 4.11853105e-01f, 1.53249115e-01f, 3.45830053e-01f, 4.03783768e-02f, -7.40637332e-02f, -1.00609370e-01f, -1.55166328e-01f, 1.38681263e-01f, 7.54254535e-02f, -1.45223677e-01f, 3.31925929e-01f, -4.27918248e-02f, -1.86105013e-01f, 2.54108965e-01f, 4.16911431e-02f, 1.06549315e-01f, 3.96592408e-01f, 1.06052935e-01f, -1.41898870e-01f, -1.22300982e-01f, 6.61812350e-02f, -1.85396403e-01f, 7.76612982e-02f, 2.36109480e-01f, -9.51996967e-02f, -5.41986600e-02f, 1.45904765e-01f, -1.99895263e-01f, -1.57602370e-01f, 2.27938890e-01f, -2.94623636e-02f, 4.61509317e-01f, 1.33101627e-01f, -2.37163790e-02f, -1.23165444e-01f, -1.13749951e-02f, 2.33538151e-01f, 2.07547676e-02f, 6.35452047e-02f, 1.40781254e-01f, 2.89511591e-01f, -4.78413478e-02f, -1.46674499e-01f, 4.63033557e-01f, 1.50899440e-01f, 1.72904283e-01f, -2.76966482e-01f, -2.06762195e-01f, -4.34410185e-01f, -2.76172340e-01f, -9.06905457e-02f, 1.76428318e-01f, 1.03598550e-01f, 2.69748539e-01f, -1.49290264e-01f, 9.06268358e-02f, -1.96313173e-01f, 2.32008309e-03f, 1.37649119e-01f, -2.63633907e-01f, 6.87833689e-03f, -2.92079568e-01f, 1.32661052e-02f, -3.74733917e-02f, -2.72816628e-01f, 1.08739279e-01f, 2.90376961e-01f, -2.23720834e-01f, -1.02508860e-02f, 6.38764575e-02f, 5.86450063e-02f, -1.27680048e-01f, -2.04920024e-01f, -1.89769104e-01f, 3.44999522e-01f, -3.17899466e-01f, -1.13024287e-01f, -3.07277441e-01f, 3.97296786e-01f, 3.88602130e-02f, -2.46202365e-01f, -2.28545085e-01f, 3.56420606e-01f, -8.42337683e-02f, -3.41358423e-01f, 1.58756226e-01f, -1.96918240e-03f, -1.37693146e-02f, -2.84778655e-01f, -2.84295768e-01f, -9.39149875e-03f, -1.37000456e-01f, 1.37761384e-01f, 8.61264095e-02f, -9.33980644e-02f, -1.09208308e-01f, -5.18543646e-02f, 2.25459799e-01f, 3.74788672e-01f, 8.01413730e-02f, -8.10236186e-02f, 8.71154815e-02f, -1.06725931e-01f, 2.18269274e-01f, -3.26371461e-01f, -9.80137736e-02f, -7.90604725e-02f, -3.66648078e-01f, -1.51387691e-01f, -5.46093062e-02f, -3.14376622e-01f, -1.63586847e-02f, -4.80647460e-02f, 6.30775641e-04f, -1.57517895e-01f, -1.41041309e-01f, 2.27902770e-01f, -4.44491915e-02f, -2.14749083e-01f, 2.95940191e-02f, 6.17733691e-03f, 1.10502481e-01f, -8.91814828e-02f, -2.88609296e-01f, -6.75452827e-03f, -2.22991571e-01f, 1.00287937e-01f, -4.57730204e-01f, 1.82955340e-01f, -1.38752252e-01f, 4.46703106e-01f, -3.05771688e-03f, -2.71127857e-02f, 3.21671307e-01f, -1.20021991e-01f, 6.82105273e-02f, -2.96635687e-01f, -1.29498005e-01f, 1.60120532e-03f, 2.83428896e-02f, -9.35747474e-02f, -1.45555688e-02f, 1.10207811e-01f, 2.15064868e-01f, -3.64963375e-02f, -4.00276817e-02f, 1.61632150e-01f, 1.49860919e-01f, 1.67363212e-01f, -3.86334151e-01f, 9.35367271e-02f, -9.77189615e-02f, -7.82158673e-02f, 4.36837375e-02f, -1.58180982e-01f, -9.61760208e-02f, 1.11694053e-01f, 3.20802689e-01f, 7.79870823e-02f, -3.92662510e-02f, -4.81364653e-02f, -1.03419781e-01f, -2.66408503e-01f, -3.36691365e-02f, 3.78744274e-01f, -2.16274902e-01f, 7.23606721e-02f, 3.03961247e-01f, 4.40389402e-02f, 3.33995491e-01f, 1.28448620e-01f, 3.39585871e-01f, 1.86835870e-01f, -1.86499923e-01f, -2.58727431e-01f, 7.21150786e-02f, 3.89622569e-01f, 2.90469676e-01f, -4.72494736e-02f, -1.20794751e-01f, -5.66678904e-02f, 6.37037829e-02f, 9.12234709e-02f, -3.78447846e-02f, 3.64666618e-02f, 1.38867006e-01f, -5.86825535e-02f, 2.63450921e-01f, 2.41468817e-01f, 4.27014707e-03f, -2.10383117e-01f, 3.51546779e-02f, 2.35598788e-01f, 1.80911288e-01f, 7.25289136e-02f, 2.61882901e-01f, 1.67141110e-01f, -3.50873202e-01f, 1.43117428e-01f, -7.18630999e-02f, 8.33901092e-02f, 1.55399039e-01f, 2.39446744e-01f, -9.53692719e-02f, 1.46555439e-01f, -1.56042455e-02f, -6.85962066e-02f, 5.87236397e-02f, 2.03583688e-01f, 1.15024440e-01f, 2.06509277e-01f, -1.40084907e-01f, -1.73909143e-01f, 4.50681942e-03f, -2.32275706e-02f, -2.23325759e-01f, 5.19930236e-02f, 1.61317155e-01f, 3.13785613e-01f, -3.51659834e-01f, 3.46112072e-01f, -1.18421704e-01f, 6.97381943e-02f, 3.84727627e-01f, 1.87081143e-01f, -7.68327015e-03f, 3.88207175e-02f, -2.62819499e-01f, 3.83314252e-01f, 1.13809302e-01f, 3.18280160e-02f, 1.36488244e-01f, -6.46656081e-02f, -5.40544055e-02f, -1.69316038e-01f, 1.22312933e-01f, -1.12030342e-01f, -1.48976579e-01f, -7.02755451e-02f, -9.21250507e-02f, -7.24133551e-02f, 1.31897166e-01f, -1.55053884e-01f, 2.13358432e-01f, -8.86999071e-03f, -2.64304370e-01f, -5.44549227e-02f, -9.64542702e-02f, 7.00255260e-02f, 3.39827508e-01f, -1.27800435e-01f, -1.66579336e-02f, 3.21496427e-01f, -2.20724031e-01f, -9.98852029e-03f, -2.64939994e-01f, -2.05237165e-01f, -7.18240887e-02f, -1.25033751e-01f, 1.22105509e-01f, -1.49382263e-01f, 1.01873301e-01f, -1.70918778e-01f, 3.49514633e-02f, 2.54116714e-01f, -1.04043260e-01f, -1.39739335e-01f, -2.95324773e-01f, 2.70141363e-02f, 1.47617757e-01f, 1.26264706e-01f, 1.97670028e-01f, 1.71485722e-01f, 2.13357121e-01f, 5.37410863e-02f, 2.22660601e-01f, 1.34694606e-01f, 7.97291845e-02f, 2.96519548e-01f, 1.05545171e-01f, -7.42770582e-02f, 1.87489688e-01f, 1.81413740e-01f, 3.10971141e-01f, 2.43123367e-01f, -4.30795224e-03f, -1.10096652e-02f, 2.67480224e-01f, 3.12542588e-01f, 2.12730587e-01f, -5.40689845e-03f, 1.10447831e-01f, -1.21731535e-01f, -2.17699677e-01f, 1.92487001e-01f, -8.41838568e-02f, -1.83418691e-01f, 2.91859627e-01f, 7.18239322e-02f, -6.31237254e-02f, 2.41427571e-01f, 2.30614811e-01f, 5.17588370e-02f, 2.95503080e-01f, -3.96435224e-02f, 2.05053136e-01f, -2.80486465e-01f, 8.33371431e-02f, -2.96255648e-02f, -9.17071253e-02f, 1.25026181e-01f, 1.46116674e-01f, -1.49211809e-01f, 3.39338221e-02f, -1.20343678e-01f, -3.55747864e-02f, -4.87597883e-01f, 2.60440707e-01f, 1.15767583e-01f, 3.34565520e-01f, -4.64138575e-02f, 1.80753559e-01f, -1.37335435e-01f, -1.12684652e-01f, -3.02051082e-02f, -1.44301593e-01f, -8.97775665e-02f, 1.00726202e-01f, -1.77602708e-01f, 2.55628228e-01f, -2.20140636e-01f, 1.42263649e-02f, -1.21256754e-01f, 2.12829694e-01f, 1.00714363e-01f, -2.98366368e-01f, -2.27911577e-01f, 1.08582914e-01f, 1.24593951e-01f, 1.84581026e-01f, -2.98309147e-01f, 2.70496696e-01f, 1.56132177e-01f, -1.14493057e-01f, 2.93616857e-02f, 1.54580161e-01f, 8.80288929e-02f, -7.26884743e-03f, 1.83880284e-01f, -7.48375133e-02f, -6.36301041e-02f, 3.59833002e-01f, 2.23425627e-02f, 3.41927439e-01f, 1.44485295e-01f, -5.74390851e-02f, 1.64171293e-01f, -1.93044960e-01f, 8.38016793e-02f, 2.40317419e-01f, 1.64951012e-01f, -1.50434971e-02f, -1.56260192e-01f, -5.77433668e-02f, 8.57368018e-03f, 2.08301023e-01f, -2.41971657e-01f, -5.78307314e-03f, 2.43752450e-02f, 2.46258304e-02f, 6.20583855e-02f, 1.35233715e-01f, -5.72509319e-03f, 2.15070471e-01f, 5.58224805e-02f, -2.85250647e-03f, 2.17546988e-02f, 2.34910205e-01f, 1.40353560e-01f, 1.47723079e-01f, 7.11896643e-02f, 1.00187592e-01f, 2.07474098e-01f, -8.78133327e-02f, 2.00335369e-01f, 3.25419784e-01f, -2.03528613e-01f, -4.05559503e-02f, 3.59918140e-02f, -1.38649624e-02f, 1.37332320e-01f, 2.65190303e-01f, 1.15484558e-01f, 9.51574445e-02f, 8.42764750e-02f, 3.45721580e-02f, 1.57861993e-01f, 1.19606882e-01f, -4.49596465e-01f, -1.15378708e-01f, 1.07272081e-01f, -1.01083398e-01f, 7.61826411e-02f, -1.06110021e-01f, 3.05036199e-03f, 1.16017140e-01f, -3.13829154e-01f, -2.55354404e-01f, -7.28187477e-03f, -1.59621567e-01f, 2.61110365e-01f, -1.46530375e-01f, -9.98379779e-04f, -2.66822845e-01f, -1.76475883e-01f, -2.65134941e-03f, -3.05245314e-02f, 2.53922697e-02f, 1.54282764e-01f, -3.52875739e-01f, 3.60053405e-02f, -1.64331317e-01f, 9.93794575e-02f, 2.32863724e-01f, -1.64129317e-01f, -2.22001091e-01f, 1.97645769e-01f, -2.32284993e-01f, 2.80994534e-01f, -1.87777534e-01f, -2.15998352e-01f, -5.49665615e-02f, -1.45182818e-01f, -5.39340079e-03f, -7.40151992e-03f, 2.51886807e-03f, 4.83455621e-02f, 2.34034993e-02f, -6.46373024e-03f, -2.25700047e-02f, -1.22329362e-01f, 3.67230952e-01f, 6.23366330e-03f, -1.01877198e-01f, 4.45966899e-01f, 8.31359401e-02f, -6.96175247e-02f, 1.70947358e-01f, 2.39369839e-01f, -1.72365140e-02f, 1.53487951e-01f, 2.66840160e-01f, 4.24663797e-02f, 2.02414934e-02f, 2.79807329e-01f, 3.52538764e-01f, -4.92502712e-02f, -5.59628978e-02f, -1.94465980e-01f, -5.53074991e-03f, 2.63362676e-01f, 2.38401815e-01f, 1.44157723e-01f, 7.40942582e-02f, 8.67960528e-02f, 5.23814298e-02f, 2.91894585e-01f, 1.70192439e-02f, -1.58069909e-01f, 9.61971208e-02f, 5.32916794e-03f, 1.14932910e-01f, -2.82826126e-01f, -2.62924850e-01f, 3.32098573e-01f, 9.98568162e-02f, -8.21090266e-02f, -6.26723468e-02f, -1.90005481e-01f, -2.93223947e-01f, 3.39985520e-01f, -3.13258797e-01f, 3.61992329e-01f, -3.58385056e-01f, -3.67614716e-01f, 1.83258072e-01f, -1.43701047e-01f, -1.92978121e-02f, -2.03053415e-01f, -2.58380562e-01f, 1.22684598e-01f, -4.01991278e-01f, -3.69180769e-01f, 3.66412878e-01f, -1.40295133e-01f, -3.24344665e-01f, 2.20981389e-01f, 1.57353342e-01f, 3.45059186e-01f, -4.00466532e-01f, -3.95254761e-01f, -6.68488294e-02f, -2.67392159e-01f, 1.25188574e-01f, -3.01315803e-02f, 6.63309172e-02f, -4.25775349e-02f, -6.08193763e-02f, -1.39636220e-02f, 2.16886438e-02f, -8.24465416e-03f, 1.21052414e-01f, 2.52282739e-01f, 5.41962050e-02f, 2.80564845e-01f, -5.44078350e-02f, 1.03930913e-01f, 2.50850711e-02f, -1.77571982e-01f, 2.51876652e-01f, -2.19466165e-02f, 3.39590520e-01f, 1.22411489e-01f, 1.54355645e-01f, -3.95991951e-02f, 2.13374063e-01f, -2.95090526e-01f, 1.48034930e-01f, 2.03479216e-01f, 1.73564583e-01f, -1.32518232e-01f, -4.23193783e-01f, -3.04085426e-02f, -7.72246122e-02f, 3.49712484e-02f, -3.60362306e-02f, -1.31294057e-01f, -5.67613691e-02f, 2.35215634e-01f, 7.77502358e-02f, -2.11183950e-01f, -3.03401109e-02f, -1.39190450e-01f, 2.89812207e-01f, -1.17707297e-01f, 4.58254628e-02f, -3.08687031e-01f, 1.13310680e-01f, 1.16304338e-01f, -9.41355154e-03f, 3.75219494e-01f, -1.31735712e-01f, -6.70149773e-02f, 7.06839934e-02f, -6.03405945e-02f, 1.28291592e-01f, -9.81006250e-02f, -3.00255399e-02f, -1.39152214e-01f, -3.93188596e-02f, -2.36060217e-01f, 1.19125053e-01f, -1.24581549e-02f, -1.43207654e-01f, -3.55545819e-01f, -3.64686213e-02f, -1.15391009e-01f, -1.93436652e-01f, 1.90677599e-03f, -6.58925157e-03f, -5.76487631e-02f, -1.98789150e-01f, -1.79998338e-01f, -4.04655874e-01f, 5.76163121e-02f, -1.75150976e-01f, -7.11949319e-02f, 2.08240047e-01f, 2.65786350e-01f, -4.15763520e-02f, 1.56007290e-01f, -5.66377789e-02f, -2.18145214e-02f, 7.23765492e-02f, -4.17324096e-01f, -7.39146769e-02f, -2.66408385e-03f, -4.57980670e-02f, -1.74930238e-03f, -2.97693700e-01f, -1.63464099e-01f, -1.02976315e-01f, -4.99656983e-02f, -7.35269189e-02f, 3.53877336e-01f, 4.63667363e-02f, -4.91254888e-02f, 4.55073640e-02f, -9.23535675e-02f, -1.49062291e-01f, 5.14917374e-02f, 3.91236059e-02f, 1.02111317e-01f, 5.17218187e-02f, 3.48698556e-01f, -7.19522685e-02f, -3.24666686e-02f, -1.46391457e-02f, 1.85098663e-01f, -1.95594907e-01f, 9.52223539e-02f, -2.45260403e-01f, -8.53624567e-03f, 8.58698636e-02f, 7.41540790e-02f, 3.86890441e-01f, -1.80154145e-01f, -5.52483797e-02f, 9.80944112e-02f, -2.12924123e-01f, -2.05163524e-01f, 5.93418144e-02f, -9.97838378e-02f, -2.14730818e-02f, 1.20568633e-01f, 3.38413209e-01f, 4.78531718e-02f, 2.31885165e-01f, 2.53831118e-01f, -2.56263733e-01f, -1.18842855e-01f, -7.16692135e-02f, 2.06718549e-01f, -1.80290505e-01f, -2.16146469e-01f, 2.07516909e-01f, 2.18051821e-02f, -1.87420398e-01f, -1.68719292e-02f, -2.94476956e-01f, -1.33920744e-01f, -1.15813747e-01f, 2.08371758e-01f, -1.43232197e-01f, -2.12713685e-02f, 2.27732688e-01f, -2.95823246e-01f, -1.16246067e-01f, -3.75714809e-01f, 5.88195100e-02f, 3.82869482e-01f, -4.49305892e-01f, -1.10476524e-01f, -2.71866322e-01f, -1.20601291e-02f, 3.03263634e-01f, 4.16563451e-03f, -8.26473609e-02f, -1.06027253e-01f, 5.80691546e-02f, -9.60288793e-02f, -8.35662261e-02f, 3.77491802e-01f, 1.24936089e-01f, -8.39319155e-02f, 2.74989158e-01f, 2.70574719e-01f, 3.13530266e-01f, 1.47774950e-01f, 3.48666608e-02f, -3.11123043e-01f};
static const float CRNN1_BIH[64] = {1.40735850e-01f, 2.64311850e-01f, 1.71681661e-02f, -1.29155174e-01f, 6.51547983e-02f, 2.96412110e-01f, 2.18369305e-01f, 6.75990060e-02f, 8.18053260e-02f, 4.39654887e-02f, -8.05275142e-02f, -8.80642608e-03f, 2.63780296e-01f, 2.22077668e-01f, 3.43483537e-01f, -1.79571211e-01f, 9.33062434e-02f, 1.42585397e-01f, -1.01049654e-01f, 3.18707228e-01f, 2.37696603e-01f, -3.00578326e-02f, 3.21885973e-01f, 3.89501929e-01f, -3.61850634e-02f, 7.97022507e-03f, 3.88024211e-01f, -8.85914937e-02f, 7.55502358e-02f, -5.26046082e-02f, 3.66526634e-01f, 1.29525855e-01f, 1.66313246e-01f, 2.30904236e-01f, 5.07149845e-03f, -3.13237488e-01f, 7.17081353e-02f, 8.59087557e-02f, 4.08414528e-02f, 1.36577770e-01f, -1.14130586e-01f, 2.64442340e-02f, 2.22589850e-01f, -5.09398058e-02f, 9.75799039e-02f, 7.77517632e-02f, 2.09265381e-01f, -2.01141402e-01f, 1.55497164e-01f, 1.02048010e-01f, -2.04330027e-01f, 1.55012220e-01f, 9.09046754e-02f, 3.29096407e-01f, -1.70564771e-01f, 3.31093013e-01f, -5.47236726e-02f, 2.44137794e-01f, 2.87119448e-01f, 7.13828802e-02f, -1.69296414e-02f, 1.30102828e-01f, -1.45851064e-03f, 1.05493344e-01f};
static const float CRNN1_BHH[64] = {2.20354825e-01f, 7.28658512e-02f, -1.39970332e-01f, 2.30441958e-01f, 1.57322034e-01f, -3.93940462e-03f, 1.38610289e-01f, 3.93368341e-02f, 1.35596648e-01f, -1.74731046e-01f, -1.91516116e-01f, 2.05657128e-02f, -1.50699973e-01f, 2.86611229e-01f, 3.41895580e-01f, -6.26138523e-02f, 1.32235959e-01f, 1.77674174e-01f, -7.30772763e-02f, 1.12954669e-01f, 1.27521828e-01f, 3.06877166e-01f, -1.05661303e-01f, 1.51489347e-01f, -9.31348428e-02f, -5.53659396e-03f, 1.32336110e-01f, -3.05524673e-02f, 2.67995596e-01f, 2.90395230e-01f, 8.92149284e-02f, 5.41627258e-02f, -1.43405432e-02f, 5.82884662e-02f, 1.27105057e-01f, 1.67656809e-01f, -1.69781700e-01f, 2.06753001e-01f, -2.00308174e-01f, -1.84195459e-01f, 2.02634677e-01f, 5.04313596e-02f, -7.51175508e-02f, -5.35287037e-02f, -1.16794072e-02f, -2.62286127e-01f, -3.73181179e-02f, -1.26139954e-01f, 1.16046488e-01f, -8.68398175e-02f, -2.03611672e-01f, 2.40985304e-01f, -1.20379187e-01f, 1.04972780e-01f, 2.82530785e-01f, 3.98926949e-03f, -9.76937637e-02f, 1.63634658e-01f, 3.20593029e-01f, 7.48295635e-02f, 9.61916596e-02f, 2.88378596e-01f, 1.85724407e-01f, 1.22483119e-01f};
static const float CRNN1_HW[32] = {3.56687635e-01f, 1.15757458e-01f, -1.10700168e-01f, -3.05972457e-01f, 4.72684801e-01f, 2.53581345e-01f, -6.48344532e-02f, 5.98472238e-01f, 1.72237188e-01f, 3.67470086e-01f, 3.39216918e-01f, -4.27332759e-01f, 2.63726860e-01f, 3.32712501e-01f, 6.84342757e-02f, -1.75068900e-01f, -1.78260043e-01f, -2.08731517e-01f, -1.74751103e-01f, 3.97106469e-01f, -3.93771499e-01f, -2.86977738e-01f, 2.35142201e-01f, -4.21640873e-01f, 1.91996358e-02f, -5.17475069e-01f, 4.22898568e-02f, -1.48672070e-02f, -1.91618472e-01f, -5.15430093e-01f, -3.26398849e-01f, 2.58759648e-01f};
static const float CRNN1_HB[2] = {-1.93024606e-01f, 4.67872731e-02f};
static const float CRNN2_W[80] = {2.88291872e-01f, -4.10694122e-01f, -2.15504780e-01f, 2.47315377e-01f, -7.55265296e-01f, 1.96319771e+00f, -2.73594499e+00f, 2.08790684e+00f, 9.60329413e-01f, -1.49142003e+00f, 4.15028095e-01f, 1.83158174e-01f, 5.65437138e-01f, -3.61527801e-01f, 6.97397441e-02f, 1.07129551e-01f, 1.97042450e-01f, 3.16311568e-01f, 2.96234876e-01f, 3.49172838e-02f, -1.02306151e+00f, -7.91291356e-01f, 6.25781715e-01f, 4.72565219e-02f, 4.17060941e-01f, -9.45855737e-01f, 3.88158631e+00f, 3.71472740e+00f, -1.02394857e+01f, 4.32270002e+00f, 4.19736207e-01f, 1.16345143e+00f, 7.74458528e-01f, -1.07907367e+00f, -1.19079900e+00f, -2.36786962e+00f, 4.79283142e+00f, -1.04646051e+00f, 2.10097075e+00f, -3.12076473e+00f, 1.54520237e+00f, -9.68410850e-01f, 1.13485014e+00f, 1.86835248e-02f, -1.11159742e+00f, 3.48348111e-01f, -8.52806628e-01f, 1.15445666e-01f, -5.52343249e-01f, 1.15570426e-02f, -9.78447258e-01f, -5.42826235e-01f, 3.77330780e-01f, -3.39267313e-01f, 7.96156168e-01f, 2.05940008e+00f, -2.59735465e-01f, -1.62728238e+00f, 7.41144300e-01f, 5.44698685e-02f, -4.09297705e+00f, 1.95308161e+00f, 1.80792379e+00f, 2.89864969e+00f, -3.12157249e+00f, -1.72395185e-01f, -5.06325439e-02f, 9.73022282e-02f, -4.91630226e-01f, -3.19556445e-01f, 9.74527776e-01f, -3.47576916e-01f, 3.29933196e-01f, -7.09625855e-02f, 5.77555671e-02f, 2.03843907e-01f, 9.80116546e-01f, 1.70801830e+00f, -3.95503592e+00f, 2.06338406e+00f};
static const float CRNN2_B[16] = {-3.58192846e-02f, -2.15759128e-02f, -9.47497934e-02f, 2.26287186e-01f, 4.80108969e-02f, 8.67120922e-02f, -9.49121416e-02f, 7.77945593e-02f, 1.37133375e-01f, 2.91587040e-02f, 1.37159089e-02f, 1.16063431e-02f, 2.42325626e-02f, -2.72321999e-02f, -9.01127532e-02f, -1.09514311e-01f};
static const int CRNN2_INCH[1] = {1};
static const int CRNN2_OUTCH[1] = {16};
static const int CRNN2_WOFF[2] = {0, 80};
static const int CRNN2_BOFF[2] = {0, 16};
static const float CRNN2_WIH[1024] = {2.63871670e-01f, 3.05130750e-01f, 5.94047531e-02f, 5.81382141e-02f, 3.52721751e-01f, 6.64082095e-02f, 3.78842831e-01f, 4.31369454e-01f, 2.13308074e-02f, -7.50850886e-02f, 3.82705986e-01f, 2.01931834e-01f, 1.96444497e-01f, 2.32230648e-01f, 2.18813553e-01f, 3.85254353e-01f, 3.32360327e-01f, -2.44226605e-01f, -5.25256842e-02f, 1.21847421e-01f, 3.17761809e-01f, 8.67427513e-03f, -3.59057367e-01f, -3.06224197e-01f, -2.55528599e-01f, 1.09272987e-01f, 3.90296042e-01f, -2.11025149e-01f, 1.57335587e-02f, -7.82856066e-03f, -3.10673326e-01f, -1.78307474e-01f, 2.04343155e-01f, 3.07604641e-01f, -1.40813097e-01f, 3.08210552e-02f, 2.71716595e-01f, 2.13327736e-01f, 3.31540495e-01f, 3.27620804e-01f, 2.52899796e-01f, 1.13127187e-01f, -1.39749438e-01f, -2.08444715e-01f, -4.87260520e-02f, 3.22813839e-02f, -1.48238122e-01f, 1.42159224e-01f, -5.95305637e-02f, 1.29689321e-01f, 2.96033621e-01f, 3.06271642e-01f, 5.04368544e-02f, 3.33388478e-01f, 1.30103519e-02f, 2.73190588e-01f, 6.68412521e-02f, -1.20246820e-01f, -3.11954886e-01f, 5.61563633e-02f, -2.69834325e-02f, -2.21416518e-01f, 4.01803732e-01f, 1.38339087e-01f, -1.16204776e-01f, 2.09010482e-01f, 1.34916633e-01f, 2.21344039e-01f, -1.10070288e-01f, -1.12163559e-01f, -1.16015114e-01f, 1.85355134e-02f, -1.12174936e-01f, -7.48307481e-02f, -1.74572721e-01f, 2.12154999e-01f, 4.78611328e-02f, 1.20650612e-01f, 3.12218785e-01f, 1.63430884e-01f, 1.72895253e-01f, 4.60783280e-02f, -1.43837631e-01f, 2.19631925e-01f, -4.52751443e-02f, 1.98506340e-02f, -2.20455647e-01f, -1.46886604e-02f, -2.21835241e-01f, 2.42582411e-01f, -1.65167257e-01f, -1.53091818e-01f, -7.69427642e-02f, -1.25490367e-01f, 1.21881023e-01f, -2.73919348e-02f, -1.07453912e-01f, 1.25588134e-01f, 2.75928974e-01f, -7.69569948e-02f, 1.18041866e-01f, 2.82070518e-01f, 2.63581425e-01f, -1.22586355e-01f, 1.23580605e-01f, -1.75506204e-01f, 2.32216373e-01f, 2.17904467e-02f, 2.18016788e-01f, 1.21409977e-02f, 8.07107463e-02f, 1.03934057e-01f, 1.89285740e-01f, 3.68921995e-01f, 2.65854120e-01f, 3.73677194e-01f, -1.62710369e-01f, 1.83034390e-01f, 4.06296641e-01f, 5.25113821e-01f, 4.82690066e-01f, -9.06076208e-02f, -5.31045347e-02f, 4.41036582e-01f, 8.50351974e-02f, 3.51716548e-01f, 3.25000547e-02f, -8.65569711e-02f, 1.69622764e-01f, 1.15949683e-01f, 1.39498428e-01f, 3.90976191e-01f, 2.37022012e-01f, 4.31943238e-01f, 1.70113713e-01f, 1.25002116e-01f, 4.47756767e-01f, -2.66630854e-02f, -5.50340228e-02f, 2.92521507e-01f, -4.00774144e-02f, 1.94669947e-01f, 3.28611195e-01f, 7.37630650e-02f, -7.95339048e-02f, 5.21203205e-02f, 1.38502046e-01f, 7.59363323e-02f, -5.59770092e-02f, 4.62100618e-02f, -2.79655248e-01f, -1.70098856e-01f, -1.14208333e-01f, 3.11188459e-01f, 2.94909060e-01f, 2.51933616e-02f, 2.46106479e-02f, 2.14558646e-01f, 1.03096142e-01f, -1.01625666e-01f, 1.60460845e-01f, 2.23979339e-01f, 1.81314722e-02f, -2.60941200e-02f, 2.47454748e-01f, 2.06856355e-01f, -2.01802954e-01f, 1.56301394e-01f, 7.10337684e-02f, -1.59210160e-01f, 1.30915806e-01f, -1.11328408e-01f, 1.61538348e-01f, -1.51416197e-01f, 1.03998624e-01f, 1.28817588e-01f, 1.17341176e-01f, 3.49239975e-01f, 3.80185917e-02f, 2.98334565e-02f, -1.65593758e-01f, 2.40911504e-05f, -1.45870790e-01f, 3.99072841e-02f, -1.75842579e-04f, 1.42957076e-01f, 2.98881888e-01f, 2.11370602e-01f, 4.56346348e-02f, -8.71190876e-02f, -6.63489848e-02f, 3.21000516e-01f, 4.88300137e-02f, 2.97196060e-01f, 1.64902389e-01f, -6.19423352e-02f, 3.04249495e-01f, 3.15792292e-01f, 2.65770525e-01f, 1.26691818e-01f, 3.95380780e-02f, 1.07200168e-01f, 3.85821275e-02f, 1.65607799e-02f, 1.63394194e-02f, 6.27582371e-02f, 1.86643869e-01f, 1.96132556e-01f, 4.70968988e-03f, -1.03127159e-01f, -2.44038492e-01f, 2.04202563e-01f, 1.49541810e-01f, 2.23853245e-01f, -1.28044844e-01f, -1.46886870e-01f, -2.77637482e-01f, -2.40388662e-02f, 2.83815861e-01f, -1.73711449e-01f, -1.64711654e-01f, 2.35625938e-01f, 1.90721825e-01f, 7.73175731e-02f, -6.26877844e-02f, -1.89265143e-02f, -3.17247957e-02f, -7.52312243e-02f, 1.10238545e-01f, -7.71435499e-02f, -1.59182385e-01f, -3.23979110e-02f, -1.94590867e-01f, -5.91806360e-02f, 1.71168610e-01f, 1.12920016e-01f, 2.23516554e-01f, -1.81906253e-01f, 1.02846688e-02f, -9.63696390e-02f, -1.99232921e-02f, -2.56862611e-01f, -4.59591970e-02f, -9.08695813e-03f, 1.52620375e-01f, -3.09494495e-01f, -4.10099179e-01f, 1.13542110e-01f, -1.70547694e-01f, 5.65707199e-02f, 3.49976301e-01f, -2.24764541e-01f, -2.26812065e-01f, -2.60436293e-02f, 6.94957897e-02f, -8.93595442e-02f, -1.61320495e-03f, 1.64688043e-02f, 2.41807476e-01f, 2.46901855e-01f, 3.43199372e-01f, 9.61609483e-02f, 1.36622012e-01f, 1.60690118e-02f, -7.91895837e-02f, -1.45283043e-01f, 2.67028391e-01f, 6.61589801e-02f, 1.04283728e-01f, 1.08924091e-01f, -1.61393330e-01f, -4.85825837e-02f, 1.69219032e-01f, -8.98258686e-02f, -3.01678121e-01f, 4.73579727e-02f, 1.74610853e-01f, -1.73907846e-01f, -5.99457957e-02f, -2.38360222e-02f, -1.70304343e-01f, 3.37292194e-01f, 3.53568435e-01f, -1.54000369e-03f, -1.12517722e-01f, -9.11862254e-02f, 1.35950461e-01f, -1.47197708e-01f, -4.89954874e-02f, 1.50333643e-01f, 6.17357865e-02f, -6.20351220e-03f, 8.60088766e-02f, -1.18565798e-01f, 5.35400771e-02f, 1.28726020e-01f, 3.49938050e-02f, 1.58519931e-02f, 3.84833068e-01f, -3.19587678e-04f, 6.56389296e-02f, 1.88286006e-01f, 2.01157853e-01f, 1.68677017e-01f, -1.18773885e-01f, 3.22822511e-01f, 1.86274871e-01f, -1.10478830e-02f, -1.28713667e-01f, -1.54472217e-01f, -1.03329740e-01f, -1.11970514e-01f, 3.03087056e-01f, -5.19173443e-02f, -2.21287057e-01f, 3.02730173e-01f, 2.08543584e-01f, -2.19948277e-01f, 2.88249761e-01f, 2.43256703e-01f, -1.49798423e-01f, 3.46125364e-01f, -5.35729490e-02f, -1.10375620e-02f, -1.57309562e-01f, 3.04227531e-01f, 2.93843094e-02f, 2.78791845e-01f, 1.73533498e-03f, 1.54495001e-01f, -1.57696053e-01f, -8.37219432e-02f, 1.10148363e-01f, 3.80097218e-02f, 6.26891032e-02f, 2.64112744e-02f, 2.56228477e-01f, 2.11158931e-01f, 1.79239914e-01f, -1.29376248e-01f, 3.32601041e-01f, 1.97324738e-01f, 4.28820997e-01f, 5.58277309e-01f, -2.88324640e-03f, 4.88909364e-01f, 2.27264259e-02f, 2.17207983e-01f, 9.15709734e-02f, 3.62616807e-01f, -4.90609892e-02f, 2.66344011e-01f, -4.79802079e-02f, -1.10791072e-01f, 1.62048027e-01f, 2.22734407e-01f, 3.15407962e-01f, 1.36652231e-01f, 3.29185158e-01f, 2.16189280e-01f, -8.91519897e-03f, -1.15168780e-01f, 2.54164577e-01f, -1.40599944e-02f, 1.83665469e-01f, -1.43138587e-01f, 2.64989257e-01f, 2.08691537e-01f, 8.92923847e-02f, 2.10970804e-01f, -1.02998994e-01f, 8.75701755e-02f, 1.30415827e-01f, -2.11040169e-01f, -6.50054738e-02f, -8.94452110e-02f, 3.66492987e-01f, 3.25089782e-01f, 3.28615278e-01f, 3.48593444e-01f, -1.96801528e-01f, 2.07397968e-01f, 1.93040043e-01f, -1.92786962e-01f, 1.67711973e-01f, 1.94937661e-02f, 1.22276634e-01f, 1.73133224e-01f, 2.88351059e-01f, -4.39929143e-02f, -2.72604953e-02f, 4.29299384e-01f, 2.76204973e-01f, 1.85674399e-01f, 1.60098925e-01f, 2.66299881e-02f, 2.28085816e-01f, -1.47358134e-01f, 1.08043425e-01f, 2.33738124e-01f, 2.67954379e-01f, -6.14049807e-02f, -1.32144168e-01f, 1.64225593e-01f, -9.60150138e-02f, -2.19077513e-01f, -3.65612805e-01f, -1.33121610e-01f, -6.45851195e-02f, -4.91837375e-02f, 1.39199104e-02f, -1.35749087e-01f, 1.46739438e-01f, 4.11550589e-02f, -1.02935314e-01f, 7.93645084e-02f, -1.83490112e-01f, 1.74741864e-01f, 1.15006104e-01f, -2.83699036e-01f, -1.72794759e-01f, -2.35306948e-01f, -2.07878277e-01f, -1.57676145e-01f, -2.48189062e-01f, -1.80853724e-01f, 1.18090466e-01f, -5.40187433e-02f, -1.80492938e-01f, -2.02099144e-01f, 8.01288784e-02f, 2.44769957e-02f, -6.11849017e-02f, -7.28669241e-02f, 1.12900145e-01f, 1.15145706e-01f, 1.44045576e-01f, 1.15717344e-01f, -2.85757836e-02f, -9.96208265e-02f, 2.00438991e-01f, 5.33851162e-02f, -1.38924405e-01f, 2.73400068e-01f, 2.28085801e-01f, -1.87649593e-01f, -6.98627532e-02f, -6.46433840e-03f, -6.38210550e-02f, 2.10838139e-01f, -1.19828895e-01f, 2.76679814e-01f, 1.21747283e-02f, 1.86030269e-01f, 5.70560172e-02f, -7.78694898e-02f, 2.31342912e-01f, -9.20749307e-02f, -6.29101647e-03f, 1.06568575e-01f, 1.95896640e-01f, -1.17927631e-02f, -1.01438582e-01f, -8.68467912e-02f, -1.69574320e-02f, -1.65164545e-01f, -1.71014190e-01f, -4.27050173e-01f, 1.68702438e-01f, 1.08539827e-01f, -2.10244119e-01f, -2.33644888e-01f, 2.13987865e-02f, 1.06429733e-01f, 2.62294233e-01f, -1.18229307e-01f, -4.56028461e-01f, -8.67761374e-02f, -1.60625145e-01f, 4.91298772e-02f, -1.03534926e-02f, 1.42825857e-01f, 3.20855349e-01f, 7.25707598e-03f, 1.29460916e-01f, 1.37916133e-01f, -2.50318404e-02f, 2.44273305e-01f, 1.38921574e-01f, -1.85055956e-01f, -3.25262636e-01f, 3.69912982e-01f, 2.24385187e-01f, 1.70836717e-01f, 1.82734787e-01f, 4.32973146e-01f, 3.33627164e-01f, 2.02892080e-01f, 3.13747860e-02f, 3.36611301e-01f, 3.19242179e-01f, 3.70924063e-02f, 4.12279576e-01f, 4.66310024e-01f, 3.69159311e-01f, 2.03113124e-01f, 5.80619395e-01f, 1.96974322e-01f, -4.35337536e-02f, -7.80373579e-03f, 2.16348678e-01f, 3.67899060e-01f, -1.35533512e-01f, 7.61927143e-02f, -1.60480589e-02f, -1.22519508e-01f, -3.90444323e-02f, 1.05549477e-01f, 1.41353428e-01f, 1.92377001e-01f, 5.69884554e-02f, 1.42854810e-01f, 2.45118767e-01f, 2.52685566e-02f, 5.47678862e-03f, -7.00171888e-02f, 1.43221483e-01f, 5.77932037e-02f, 1.19087100e-01f, 3.64249885e-01f, 4.21995632e-02f, 2.71574289e-01f, -9.42192897e-02f, 2.36086428e-01f, 2.41145849e-01f, -2.69340910e-02f, 4.75344397e-02f, -1.58648789e-01f, -1.48440361e-01f, 4.79160361e-02f, 1.27682045e-01f, -1.35409370e-01f, -1.60923839e-01f, -1.13317497e-01f, -1.37546891e-02f, -1.47939906e-01f, 1.21281482e-01f, 1.60542473e-01f, 1.59915432e-01f, 2.85744462e-02f, -2.63906509e-01f, 1.56535462e-01f, -2.55996674e-01f, -8.71070325e-02f, -1.50766388e-01f, 3.48011144e-02f, -2.50285208e-01f, -1.31890997e-01f, -2.34999955e-01f, -2.44611323e-01f, -1.32375970e-01f, 3.06530535e-01f, 5.32961152e-02f, 1.31765395e-01f, -2.30855271e-01f, 2.72884339e-01f, -9.13461074e-02f, -2.18250692e-01f, 1.70359835e-01f, -8.53051022e-02f, 2.04607993e-01f, -8.47988203e-02f, -2.00102434e-01f, -1.69245690e-01f, 1.84784532e-01f, 7.03022406e-02f, -2.64474094e-01f, 2.58218348e-02f, -2.76968367e-02f, 7.08947331e-02f, -1.91643387e-01f, -1.44485146e-01f, 3.16152275e-01f, -3.59195620e-02f, 2.46863082e-01f, 1.96341291e-01f, -1.73646048e-01f, -1.38577253e-01f, 6.41661435e-02f, -3.22706610e-01f, 5.97856790e-02f, -9.49773416e-02f, -5.12806661e-02f, -3.17231387e-01f, 7.55129531e-02f, -1.56526834e-01f, -1.83714628e-01f, -3.39393944e-01f, -1.93375334e-01f, -2.39287823e-01f, 1.21668622e-01f, -4.52298038e-02f, 1.35743171e-01f, 7.20478296e-02f, -1.15107663e-01f, -1.04954697e-01f, -1.64878920e-01f, -2.03129593e-02f, -5.10123149e-02f, 4.87287907e-04f, 2.31217086e-01f, 3.29705745e-01f, 1.25824735e-01f, -4.42877645e-03f, 6.84271827e-02f, 2.93863080e-02f, 3.84957820e-01f, -1.76751539e-01f, -1.83420926e-01f, 1.19228445e-01f, -4.34310474e-02f, 4.58516255e-02f, 1.07789464e-01f, -6.71653375e-02f, 2.01986358e-01f, 1.52371153e-01f, 6.36169836e-02f, -2.42114425e-01f, 1.44258708e-01f, 1.88621908e-01f, 7.94484094e-02f, -8.87786895e-02f, -1.04557974e-02f, -7.51000792e-02f, 2.41968527e-01f, 2.38621294e-01f, -2.65635904e-02f, -1.43297359e-01f, 1.54019088e-01f, 1.66344985e-01f, 1.25951916e-01f, -1.53913796e-01f, 1.54430687e-01f, -8.77676234e-02f, -2.35006854e-01f, -1.30468175e-01f, 1.41177371e-01f, 1.18862964e-01f, -1.78943649e-01f, 1.33427650e-01f, 1.50558472e-01f, 2.20514864e-01f, 1.45932347e-01f, -4.65269126e-02f, 2.04628095e-01f, 2.44291246e-01f, 1.54330701e-01f, -2.98850089e-01f, -2.44869903e-01f, 8.19757134e-02f, 2.16163605e-01f, 1.03284247e-01f, -8.51250365e-02f, -7.43235797e-02f, -2.44244143e-01f, -1.16463400e-01f, 2.21134797e-01f, -3.60248893e-01f, -1.99696213e-01f, 8.26651677e-02f, -3.05263489e-01f, -9.06311534e-03f, 9.50660482e-02f, 1.43179089e-01f, -1.73793361e-01f, 5.85425608e-02f, -1.42793506e-01f, 2.42375076e-01f, 3.20522666e-01f, -3.55825201e-02f, 1.84952572e-01f, -1.18143484e-02f, -7.94440582e-02f, -8.31074044e-02f, -1.62097082e-01f, 1.74247324e-01f, -1.36185391e-02f, 1.10210076e-01f, -1.96185037e-01f, -1.52970791e-01f, -2.19697893e-01f, -1.76980793e-01f, 1.62561834e-01f, 5.24099320e-02f, -2.03754783e-01f, 2.72316695e-03f, 6.73301518e-02f, 1.29103288e-01f, 2.00069234e-01f, 5.70403337e-02f, 2.02058181e-01f, -1.12776332e-01f, -1.85991395e-02f, -2.00710684e-01f, 9.65388194e-02f, 2.09744066e-01f, 1.47329226e-01f, 2.24007785e-01f, -6.03888892e-02f, 1.37447026e-02f, 1.23852752e-01f, 2.26061836e-01f, -2.44150311e-01f, -6.59935400e-02f, 8.96936432e-02f, -1.75605267e-01f, 1.03286363e-01f, 3.19265090e-02f, -7.88656846e-02f, 1.59653351e-01f, 8.43181685e-02f, 2.62128711e-01f, 1.20144971e-01f, 2.91470140e-02f, 7.92993456e-02f, 2.57524192e-01f, 2.02253222e-01f, 3.61740202e-01f, 2.35065028e-01f, -2.41005465e-01f, -1.82223096e-01f, -9.47568119e-02f, 2.73988880e-02f, -1.78585932e-01f, 6.71258047e-02f, 1.90971211e-01f, -2.35767458e-02f, -5.85324645e-01f, -7.98424110e-02f, -3.29750508e-01f, 2.42563128e-01f, -3.15104961e-01f, -2.52486855e-01f, -1.47800773e-01f, -1.10224955e-01f, -1.50655344e-01f, -1.41007558e-01f, -2.94100553e-01f, -1.28299460e-01f, -2.15617016e-01f, -4.11767036e-01f, -1.16497040e-01f, -3.90880555e-03f, 1.14127010e-01f, -2.89977163e-01f, -7.42998943e-02f, -1.10868849e-01f, -6.62593022e-02f, -3.94149125e-02f, 1.25805184e-01f, -1.77032754e-01f, -1.37636885e-01f, 2.59648934e-02f, -2.84964681e-01f, 1.98247850e-01f, -1.96477510e-02f, -2.05183581e-01f, 1.12407081e-01f, 1.03900664e-01f, 1.82911530e-01f, -8.40113238e-02f, -2.21148282e-01f, 2.48591110e-01f, 2.25587517e-01f, -1.48950204e-01f, 1.34687752e-01f, 1.64302140e-01f, 2.01811895e-01f, 1.98992833e-01f, -8.88959318e-02f, -1.93831772e-01f, 2.24597514e-01f, -2.08509311e-01f, -1.44456670e-01f, 9.80041772e-02f, -1.45797163e-01f, 6.98819458e-02f, 1.99377447e-01f, 3.92471731e-01f, -1.71344385e-01f, 1.42559111e-01f, 2.31465593e-01f, 7.91455135e-02f, 2.50550032e-01f, 3.85467678e-01f, 1.94879979e-01f, 1.72609687e-01f, 2.92350143e-01f, -1.14742763e-01f, -1.60574660e-01f, -2.17081215e-02f, 4.08146143e-01f, 9.07795057e-02f, 8.21740776e-02f, -1.10594667e-01f, 2.23096237e-01f, 9.41849425e-02f, 3.99235524e-02f, 3.45932275e-01f, -8.62489417e-02f, 6.43253773e-02f, 1.21053576e-01f, -7.47039840e-02f, 2.70036846e-01f, 6.57685474e-02f, 3.68471742e-01f, 2.68791348e-01f, 3.08955550e-01f, 1.54042080e-01f, 2.71716118e-01f, 3.29034060e-01f, 1.46806002e-01f, 9.21206549e-02f, 1.92890298e-02f, 1.99117467e-01f, 2.22414285e-01f, -2.40520462e-01f, 2.77969390e-01f, 9.97401923e-02f, -1.09893881e-01f, 1.63125247e-01f, 2.71904707e-01f, 2.03264788e-01f, 3.85002792e-01f, 1.12752929e-01f, -1.37088388e-01f, 1.74954552e-02f, 2.80138075e-01f, 1.37821227e-01f, 3.25271636e-01f, 2.12249354e-01f, 3.43820006e-02f, -9.96750221e-02f, 2.23878518e-01f, -1.23902731e-01f, 2.61930555e-01f, 2.34208077e-01f, 2.85903633e-01f, 4.09277201e-01f, 1.11701608e-01f, -5.50484993e-02f, 9.54605490e-02f, 9.37269852e-02f, 2.23256007e-01f, 3.25019151e-01f, -1.56276710e-02f, 1.18167438e-01f, 4.27851439e-01f, -5.15446533e-03f, 8.36520717e-02f, 2.64420122e-01f, 3.72123480e-01f, 1.96603030e-01f, 2.17599962e-02f, 8.74380954e-03f, -2.06708252e-01f, -2.49421105e-01f, -2.24697098e-01f, 2.84006953e-01f, 1.96740121e-01f, 8.25065449e-02f, -3.09008323e-02f, 2.51548111e-01f, -2.98609827e-02f, 2.92241305e-01f, 1.56818645e-03f, -1.05562046e-01f, -4.01617065e-02f, -6.29632995e-02f, -2.32180223e-01f, 2.13299423e-01f, 2.53013551e-01f, 3.51102263e-01f, 5.17971516e-01f, 1.00689769e-01f, 2.49524727e-01f, 2.73410380e-01f, 5.02780080e-01f, 9.19589922e-02f, 1.05363667e-01f, 4.60840352e-02f, 4.39684838e-01f, 2.01748282e-01f, 4.67687100e-03f, 2.53783703e-01f, 3.40909451e-01f, 1.85922667e-01f, -1.37121603e-01f, -1.25139937e-01f, 3.57953668e-01f, 8.23099837e-02f, -1.94819868e-01f, -1.00275196e-01f, 1.68993205e-01f, 1.23394411e-02f, -1.77445635e-01f, -1.11003682e-01f, -3.76815945e-02f, 7.59522617e-02f, 1.32452264e-01f, 1.85052991e-01f, -6.79498389e-02f, 1.12036154e-01f, -9.33522284e-02f, 2.47522295e-01f, 3.34039539e-01f, 3.80385429e-01f, 1.62749723e-01f, 1.35703841e-02f, 8.21772590e-02f, 1.91026628e-01f, -8.02801698e-02f, 1.87547162e-01f, -1.12234943e-01f, -2.04656839e-01f, 1.36616915e-01f, -1.43184830e-02f, -8.19943324e-02f, 8.14198479e-02f, 7.09945261e-02f, 5.66892773e-02f, -1.35125309e-01f, -2.32359275e-01f, 5.48148379e-02f, -7.86605999e-02f, -1.21790610e-01f, 2.54803836e-01f, 5.74928783e-02f, 9.33636278e-02f, 4.98461630e-03f, -2.82763690e-01f, 6.32699728e-02f, -1.41595989e-01f, 1.19373024e-01f, -1.75396279e-01f, 4.04248446e-01f, -2.63253599e-02f, 3.36866975e-01f, 1.95577905e-01f, 2.88541257e-01f, 3.49135876e-01f, 3.04523110e-01f, 1.30256742e-01f, 1.03856763e-02f, -8.30631331e-02f, -7.97298029e-02f, 3.46338093e-01f, 2.21097115e-02f, 2.39529058e-01f, 1.99447796e-01f, 1.30292580e-01f, 7.20648244e-02f, -3.54740024e-02f, 3.03549945e-01f, 2.17302412e-01f, 2.77187496e-01f, -7.13781342e-02f, 2.61365831e-01f, -8.92850310e-02f, 4.46444936e-02f, 1.16749048e-01f, -6.37310371e-02f, -5.39964586e-02f, 9.98296738e-02f, 3.45354974e-01f, 4.35452819e-01f, -9.56541970e-02f, -4.29795571e-02f, -2.15200469e-01f, -2.05596223e-01f, 2.65646409e-02f, 3.88356417e-01f, -1.41792193e-01f, -9.83885899e-02f, 1.86447963e-01f, 1.37007371e-01f, 3.18303823e-01f, 2.90921956e-01f, 6.82994276e-02f, 1.32558495e-01f, -1.21732593e-01f, -1.37811139e-01f, -4.79837582e-02f, 1.87524199e-01f, 1.04055956e-01f, 3.45610268e-02f, -8.33256319e-02f, -2.00744748e-01f, 2.12122902e-01f, -3.59367654e-02f, -1.93437487e-01f, 5.97000644e-02f, 8.27746466e-02f, -2.99424995e-02f, 8.94107223e-02f, 1.84118196e-01f, -2.42246002e-01f, -4.28451672e-02f, -5.07161915e-02f, 3.12387109e-01f, 2.23929495e-01f, 2.43391737e-01f, 3.46669495e-01f, 2.09434047e-01f, -1.58460304e-01f, 1.68550432e-01f, -7.89525434e-02f, 1.14696003e-01f, 1.04512192e-01f, 3.55654299e-01f, -5.19476598e-04f, -1.35302305e-01f, 4.50812206e-02f, 1.60685867e-01f};
static const float CRNN2_WHH[1024] = {2.57212281e-01f, 5.00562526e-02f, 8.20017159e-02f, 3.08914155e-01f, -6.03564531e-02f, -1.42065957e-01f, -1.80625945e-01f, 2.40700081e-01f, -4.22656462e-02f, 1.99977145e-01f, 2.15325192e-01f, 2.02996790e-01f, -2.06389606e-01f, 3.27718347e-01f, -3.44486982e-01f, -9.45578367e-02f, 1.28402010e-01f, 1.27812639e-01f, 1.32791819e-02f, 4.90976349e-02f, -3.42407972e-01f, 2.19601944e-01f, 2.85586059e-01f, -1.40554219e-01f, -1.15273379e-01f, -8.12548175e-02f, -6.33409694e-02f, 1.44711053e-02f, -1.65224567e-01f, -2.40118563e-01f, -2.77901530e-01f, 1.54974192e-01f, 1.35754243e-01f, -4.16691065e-01f, -1.67801753e-01f, -4.64916863e-02f, 3.62259686e-01f, -1.66086599e-01f, -3.01009953e-01f, 2.24255338e-01f, 1.85090750e-01f, 4.09268141e-01f, 5.73743433e-02f, -3.95308971e-01f, 1.29898190e-01f, 1.91592500e-01f, 7.22132772e-02f, -1.51670054e-01f, -2.19261706e-01f, -2.43033320e-01f, 1.96957216e-03f, -9.65496451e-02f, 1.95170492e-01f, -3.20925504e-01f, -6.22542426e-02f, -1.42903522e-01f, 2.04200208e-01f, 1.58856660e-01f, -5.91860376e-02f, -1.75316855e-01f, -2.48109043e-01f, 4.17716622e-01f, 5.15783429e-02f, 8.23809430e-02f, -1.80251077e-02f, 2.52259225e-01f, -4.60469583e-03f, 1.83351308e-01f, 4.97159474e-02f, -1.21254131e-01f, 2.85467207e-01f, 1.21395722e-01f, -7.28685483e-02f, -1.79809958e-01f, 6.80879205e-02f, 2.61476427e-01f, 1.58928558e-01f, -1.64048254e-01f, -1.61008522e-01f, 8.80151093e-02f, 5.98511808e-02f, 4.46454823e-01f, 7.36950040e-02f, 1.72979206e-01f, -1.85109496e-01f, -2.90073186e-01f, -5.97541034e-02f, -6.59413412e-02f, -2.33702883e-01f, -3.24556142e-01f, 2.49080807e-01f, 2.35231012e-01f, -1.55957118e-01f, 3.54239158e-02f, 2.65121832e-02f, 2.41978571e-01f, 1.72032252e-01f, -9.11485255e-02f, 8.80356655e-02f, -3.20355922e-01f, -1.40825972e-01f, -3.09672832e-01f, 1.87234161e-03f, 2.52111945e-02f, -1.08281616e-03f, -1.54639691e-01f, -6.41685799e-02f, 8.34837705e-02f, -1.71722725e-01f, -2.16180384e-01f, 1.49617463e-01f, 2.26608485e-01f, 2.56399214e-01f, -2.85281360e-01f, 9.74070653e-02f, 6.26515225e-02f, -4.75577675e-02f, -5.15827760e-02f, -3.65208052e-02f, 3.86748537e-02f, 1.83851704e-01f, -6.41781092e-02f, 1.25647023e-01f, -2.64025509e-01f, -2.42491588e-02f, -1.23273544e-01f, -5.59045598e-02f, 7.93667361e-02f, -2.23193675e-01f, -8.85755122e-02f, 1.68685630e-01f, 2.99654305e-01f, 1.40638739e-01f, -1.65539593e-01f, 1.76403016e-01f, 2.55956411e-01f, -9.25443992e-02f, -1.04861334e-01f, 3.60609025e-01f, 1.20534062e-01f, 6.27961755e-02f, 2.57518180e-02f, -3.30208540e-01f, -1.86263382e-01f, 1.43078506e-01f, 6.02392741e-02f, 1.66157633e-01f, 2.54717320e-01f, -2.50492036e-01f, -5.73517475e-03f, 3.53745222e-02f, -6.63881898e-02f, 2.15346552e-02f, 3.31020616e-02f, 2.28526071e-02f, 3.08249239e-03f, -2.49659508e-01f, -2.26959333e-01f, -2.10011401e-03f, -1.16606697e-01f, 7.61357993e-02f, -9.16825235e-02f, 6.56663324e-04f, 2.28260420e-02f, 1.63302645e-01f, 2.18410566e-02f, 1.52229562e-01f, 5.66973463e-02f, 3.84434648e-02f, 9.26943645e-02f, 1.60600141e-01f, -2.24319589e-03f, 2.59474397e-01f, -1.13443933e-01f, 9.34053585e-02f, 1.37969330e-01f, -2.69966841e-01f, 6.08906969e-02f, 1.63232997e-01f, 5.08893766e-02f, -1.46497756e-01f, -3.59222963e-02f, 1.57382801e-01f, 1.84975713e-01f, 5.84102198e-02f, 1.16365571e-02f, 3.17780636e-02f, 1.52162254e-01f, -7.40549788e-02f, 1.88428894e-01f, -2.90983349e-01f, -2.51379669e-01f, 1.24626413e-01f, 4.40991372e-02f, -1.79248407e-01f, 2.21619114e-01f, -2.50036530e-02f, 1.54086873e-02f, 1.83189120e-02f, -4.27231230e-02f, -1.72835682e-02f, 7.92040825e-02f, -9.29534137e-02f, 1.82576790e-01f, 6.20062016e-02f, 1.10973112e-01f, -1.73175067e-01f, -4.25603032e-01f, 3.76994647e-02f, -1.74497023e-01f, -1.86310455e-01f, 1.12005986e-01f, -4.32924777e-01f, 6.92387596e-02f, -6.89031258e-02f, 3.40084195e-01f, 1.20827466e-01f, -8.04456845e-02f, -1.33692116e-01f, 2.02745020e-01f, -2.43647665e-01f, 1.17573150e-01f, -2.52549499e-01f, -3.02776247e-02f, -1.66763499e-01f, -1.04563333e-01f, -2.21821234e-01f, -1.13106899e-01f, -3.12097203e-02f, -2.25009650e-01f, 2.93405771e-01f, -1.56521827e-01f, -2.38784984e-01f, -1.32041007e-01f, 2.05033675e-01f, 5.38625233e-02f, -2.34586179e-01f, 6.26627952e-02f, 1.57334059e-01f, -6.39975742e-02f, 4.43617813e-02f, 1.38239637e-01f, -1.72817037e-01f, 1.99425548e-01f, 4.69081961e-02f, -1.54248804e-01f, 2.65353322e-01f, 2.55623043e-01f, 2.92626619e-01f, 8.74297973e-03f, -2.71614194e-01f, -1.06421788e-03f, -2.03387588e-01f, -7.06151500e-02f, 1.66866824e-01f, 4.24201861e-02f, 2.69107550e-01f, 1.37240775e-02f, -1.29165456e-01f, 3.58457148e-01f, 9.97769088e-02f, -1.33798033e-01f, 3.16380709e-02f, 2.54796475e-01f, 7.85470232e-02f, -2.18194574e-01f, -7.32581317e-02f, 2.06520855e-01f, 2.73665965e-01f, -1.98229015e-01f, -1.51934788e-01f, -2.37685516e-01f, -1.15040988e-02f, 1.43315077e-01f, -3.78555834e-01f, 2.90628672e-02f, -3.01715851e-01f, -9.35934931e-02f, -5.41544296e-02f, 4.11497392e-02f, -9.66460556e-02f, -1.00779109e-01f, -1.57295540e-01f, -6.63276315e-02f, -1.82443976e-01f, -3.20694506e-01f, 2.63681591e-01f, -1.99615747e-01f, 2.85115913e-02f, 1.06267333e-02f, -1.13682516e-01f, 2.65533894e-01f, -3.25629175e-01f, -4.54039156e-01f, -1.20762073e-01f, 9.61842909e-02f, 2.65139252e-01f, 2.48703405e-01f, -3.45196836e-02f, -4.11219478e-01f, 3.05455208e-01f, -2.86853969e-01f, 2.70799756e-01f, -1.45751089e-01f, 1.81031823e-01f, 3.92418057e-01f, -1.77533373e-01f, 3.63195449e-01f, 2.41500929e-01f, 2.05699414e-01f, 1.98525906e-01f, 4.34111916e-02f, 3.67035925e-01f, -3.12667638e-01f, 2.76733458e-01f, -2.29183108e-01f, 4.30511594e-01f, -1.68797359e-01f, -5.20957932e-02f, -3.68528455e-01f, 8.81243050e-02f, 1.48389548e-01f, 4.59440574e-02f, -6.33933693e-02f, -3.51378113e-01f, -2.53752470e-02f, 2.52268976e-03f, 8.67604613e-02f, -2.38225266e-01f, -1.80157810e-01f, 1.41111940e-01f, 2.87380517e-01f, 8.63958746e-02f, -9.07895863e-02f, -1.86229199e-01f, 9.32782441e-02f, 2.84870774e-01f, -4.74850416e-01f, -2.37177357e-01f, -2.45981008e-01f, -1.10681184e-01f, -1.93672851e-01f, 1.96413428e-01f, 2.91730404e-01f, -6.22874722e-02f, 8.40732008e-02f, -2.02812850e-01f, -3.96811217e-02f, 1.01252012e-01f, -2.57447869e-01f, -4.62072529e-02f, -7.96266943e-02f, 2.29148582e-01f, -1.02041930e-01f, 8.34834129e-02f, -2.42581099e-01f, -6.46980330e-02f, -4.08417910e-01f, -1.30804345e-01f, -2.23527234e-02f, -1.42443255e-01f, 2.32898802e-01f, 2.52290368e-01f, -1.52303696e-01f, -4.99385484e-02f, -1.69410139e-01f, -2.08895668e-01f, -1.64135918e-01f, -2.61381343e-02f, 1.95687950e-01f, -8.19622651e-02f, 4.16604251e-01f, 2.12334767e-02f, 1.30516738e-01f, 1.56405330e-01f, 1.14190266e-01f, 1.35410815e-01f, -3.01098645e-01f, -1.16248813e-03f, -2.45207369e-01f, 5.41143864e-02f, -1.19858362e-01f, -2.05860034e-01f, -3.32830399e-01f, 2.07339954e-02f, 1.38188586e-01f, -2.02907026e-01f, 4.35369939e-01f, 1.56378031e-01f, 4.82060835e-02f, 1.14895791e-01f, 1.62714079e-01f, -1.70323133e-01f, 4.28277068e-02f, 3.54984820e-01f, -2.66803186e-02f, 2.69172430e-01f, 2.05745429e-01f, -2.54201859e-01f, -2.10672930e-01f, -4.83326465e-02f, 8.68897960e-02f, -2.94586092e-01f, 3.23035754e-02f, -2.08638147e-01f, 1.65146783e-01f, 5.85400201e-02f, 1.95435569e-01f, 1.08263247e-01f, -1.58159673e-01f, 1.47725776e-01f, 1.07943498e-01f, -1.58991307e-01f, -1.76426664e-01f, -1.25319868e-01f, 3.18282582e-02f, 1.56078748e-02f, 3.24779935e-02f, 1.04124188e-01f, 1.45596221e-01f, 1.51834086e-01f, 2.27447357e-02f, -1.61658987e-01f, -1.82991788e-01f, -1.80901706e-01f, 1.46252900e-01f, -1.88285515e-01f, -2.19372645e-01f, 2.23345637e-01f, 4.57593463e-02f, -1.47903755e-01f, 7.71223679e-02f, -5.52261993e-02f, 1.43749624e-01f, -3.01249862e-01f, 1.15951210e-01f, -2.71829627e-02f, 1.16349094e-01f, 2.77488947e-01f, -1.43812681e-02f, -1.52022749e-01f, -1.10274442e-01f, 1.72699615e-01f, 1.32700056e-01f, -1.72209501e-01f, -3.80106866e-02f, -1.77472442e-01f, -2.18510151e-01f, 3.06474656e-01f, -4.13238816e-02f, -4.13161546e-01f, 5.84132969e-02f, -5.07565551e-02f, -2.96996444e-01f, 1.71512097e-01f, 4.24299747e-01f, 1.50996879e-01f, -8.73248428e-02f, 2.02276409e-01f, 1.22600883e-01f, 2.99032837e-01f, -9.61202085e-02f, 1.29883671e-02f, -3.72853339e-01f, 2.51207471e-01f, 3.78652215e-02f, -1.44011408e-01f, -2.84372568e-01f, 8.37540105e-02f, 1.60836414e-01f, 1.38714597e-01f, 1.82782114e-01f, 2.28279471e-01f, 2.28910670e-01f, -2.50505477e-01f, -1.36369765e-01f, 3.29732835e-01f, -9.71658379e-02f, 4.25763160e-01f, -3.08994114e-01f, 5.59949083e-03f, 3.46256822e-01f, -4.25813615e-01f, 3.56655717e-01f, 1.17299996e-01f, -3.40145409e-01f, 4.16433424e-01f, 3.26703668e-01f, -1.27856821e-01f, -3.68944019e-01f, 3.81863624e-01f, -1.29337251e-01f, 1.02542251e-01f, -4.15317029e-01f, 1.51113585e-01f, -1.64280355e-01f, 2.83675581e-01f, 2.31259674e-01f, -3.36937219e-01f, -4.10085432e-02f, -1.49573535e-01f, -3.46655190e-01f, 3.49895746e-01f, 3.21159095e-01f, 5.57851344e-02f, -1.55299619e-01f, 8.30224827e-02f, -1.85008608e-02f, 3.14296126e-01f, -9.90890563e-02f, 1.50522187e-01f, -4.38233405e-01f, 1.34135544e-01f, -9.38891843e-02f, -2.74856120e-01f, 8.06838274e-02f, 7.13355914e-02f, 2.14195222e-01f, -3.15675735e-01f, 4.21805441e-01f, 8.09375644e-02f, 2.63516873e-01f, 1.16782933e-01f, -1.55196965e-01f, -5.11150621e-02f, -3.20392884e-02f, -2.78709829e-02f, -7.21098855e-02f, 7.23214522e-02f, 1.70203775e-01f, -9.15410742e-02f, 1.02617458e-01f, 2.39874914e-01f, -1.49207190e-01f, 1.83024451e-01f, -1.40522435e-01f, 9.56727788e-02f, -2.43721068e-01f, -1.59794599e-01f, 4.04918194e-02f, -2.57418305e-01f, 7.85594583e-02f, 2.13692948e-01f, 2.55073719e-02f, -1.56927019e-01f, 1.40728548e-01f, -2.59350576e-02f, -6.26415536e-02f, -6.64176000e-03f, 1.70872763e-01f, -1.22103803e-01f, -1.70806020e-01f, -4.09047961e-01f, -1.26463965e-01f, 1.07367791e-01f, 1.38581432e-02f, 9.23426449e-03f, 1.74962640e-01f, -1.89126223e-01f, 1.11573562e-01f, -7.53739476e-02f, -7.03220963e-02f, 9.17938650e-02f, 3.09098393e-01f, -1.70789137e-01f, 1.68535307e-01f, -2.65819758e-01f, -1.56961575e-01f, 2.90038019e-01f, -8.90243873e-02f, -1.85869396e-01f, -1.70740671e-02f, -2.59183086e-02f, -1.46691293e-01f, -7.62199312e-02f, -1.39557302e-01f, 1.48228645e-01f, -2.39057124e-01f, -4.07936424e-01f, 2.28638008e-01f, -1.00667402e-01f, 2.31776256e-02f, 2.06418604e-01f, 7.22760335e-02f, 7.07904901e-03f, 1.37088731e-01f, 4.39885557e-02f, -1.66894197e-01f, 2.07278818e-01f, 2.51897238e-02f, 1.36554003e-01f, -1.66167408e-01f, 1.28992319e-01f, 5.06491922e-02f, -1.64448693e-01f, 5.16592478e-03f, 2.04170480e-01f, 1.89519837e-01f, 1.70363128e-01f, 2.74764568e-01f, 1.82083488e-01f, 1.39045626e-01f, 4.12026763e-01f, -2.00955629e-01f, 2.81180386e-02f, 1.75212193e-02f, -3.97163928e-01f, -6.41832948e-02f, 2.51274053e-02f, -1.58394948e-02f, -9.86759961e-02f, 2.03677103e-01f, -1.22618280e-01f, -1.50690034e-01f, 2.34602228e-01f, -1.30764455e-01f, -2.10691281e-02f, -3.35816860e-01f, 2.44667828e-01f, -1.70540750e-01f, 9.93679836e-03f, -2.79980898e-01f, -2.88067728e-01f, 2.52444178e-01f, -8.82205069e-02f, -1.37834594e-01f, 7.72374496e-03f, 2.94261605e-01f, 1.96224809e-01f, 2.53731847e-01f, -2.17590183e-01f, 1.18989293e-02f, 3.17434460e-01f, 1.88750163e-01f, 2.21703257e-02f, -3.06724757e-01f, -1.62381709e-01f, 1.21798106e-01f, -1.46514371e-01f, 1.16530694e-01f, 2.99738884e-01f, -1.90823779e-01f, -1.54617146e-01f, 3.64371866e-01f, -4.76947390e-02f, -1.13004290e-01f, -2.56918848e-01f, 1.69269994e-01f, 2.04076007e-01f, 2.33876720e-01f, 2.33053252e-01f, -9.39963909e-04f, 1.01359256e-01f, 2.51095980e-01f, -8.91124234e-02f, -5.14366738e-02f, 2.54235685e-01f, -2.00484708e-01f, 1.24534294e-01f, 1.14767924e-01f, 1.33747831e-01f, 3.77255008e-02f, -2.67574787e-01f, 2.84645408e-01f, 2.72247016e-01f, -1.47968039e-01f, -1.38060048e-01f, -6.04382008e-02f, 1.77072376e-01f, 1.67852249e-02f, -9.31307301e-02f, 1.57768175e-01f, -1.02938399e-01f, 2.09041119e-01f, -2.03569755e-02f, 2.91672379e-01f, 1.09591551e-01f, 3.40328030e-02f, 2.31819570e-01f, 4.64996435e-02f, 2.50849962e-01f, 1.17047518e-01f, -8.87390673e-02f, 8.12332258e-02f, -1.33154303e-01f, 1.69531912e-01f, -2.11834386e-01f, 7.03777596e-02f, -1.06024005e-01f, 5.95304519e-02f, -2.37595662e-02f, 5.19159287e-02f, 7.92666823e-02f, -2.61235863e-01f, 2.59581000e-01f, -3.31468344e-01f, -2.68383056e-01f, 8.40551034e-02f, 3.03497612e-01f, 1.44045427e-01f, -2.23020867e-01f, 6.89433515e-02f, -2.97940701e-01f, 2.49603719e-01f, 1.50809780e-01f, -5.77080064e-02f, -2.75702387e-01f, 9.20642540e-02f, 3.12251568e-01f, -1.62928462e-01f, 3.07175722e-02f, 2.02803556e-02f, 7.31881112e-02f, 3.03704917e-01f, -3.45261157e-01f, -1.62158802e-01f, 2.08571851e-01f, 7.37537965e-02f, 6.39070719e-02f, -2.93515891e-01f, 7.38670975e-02f, -1.77649349e-01f, 1.18711628e-01f, -8.59286338e-02f, 1.63147852e-01f, 3.73328894e-01f, -2.45169461e-01f, -1.55760407e-01f, -1.15207441e-01f, 1.59023091e-01f, 3.01413089e-01f, -3.09663504e-01f, 2.12417886e-01f, 2.81639785e-01f, -1.96403295e-01f, 2.31538445e-01f, 2.23791316e-01f, -2.36679927e-01f, 9.98070464e-02f, -1.61741003e-01f, -7.99233913e-02f, 5.69719598e-02f, -3.30640733e-01f, -1.43141538e-01f, 1.97001025e-01f, 1.94715932e-01f, -1.95504799e-01f, -1.75696552e-01f, 2.53115416e-01f, -2.59932399e-01f, 1.56192780e-01f, -3.34119856e-01f, -3.69503707e-01f, 1.45421833e-01f, -5.15486449e-02f, 1.34237543e-01f, 1.84953332e-01f, 5.36086597e-02f, 3.11552346e-01f, -2.77512133e-01f, -2.27333959e-02f, 6.38948828e-02f, 1.90406684e-02f, 8.98916647e-02f, -2.55909324e-01f, 3.69869694e-02f, -3.77386242e-01f, 7.26358071e-02f, -1.66719005e-01f, -6.23086952e-02f, -1.50466144e-01f, -4.88221049e-02f, -1.63257435e-01f, 4.69452664e-02f, 1.48875102e-01f, 2.14152485e-01f, -1.75647289e-02f, -5.52686043e-02f, -2.52594471e-01f, 2.74629295e-01f, 9.50665250e-02f, -3.14624980e-02f, -2.30179559e-02f, 4.53423783e-02f, -2.10048899e-01f, 7.28195906e-02f, -2.68961668e-01f, 7.32775778e-02f, -2.29788929e-01f, 2.59523615e-02f, -1.33006603e-01f, 1.16227336e-01f, 8.35087374e-02f, 1.07495658e-01f, -1.15963757e-01f, 2.75781035e-01f, -2.26704463e-01f, -2.89055318e-01f, 4.12653051e-02f, 1.06931299e-01f, 1.67581812e-01f, -3.10246736e-01f, -1.91319227e-01f, 1.09284207e-01f, -1.39939904e-01f, -2.12104365e-01f, -8.26514959e-02f, 3.91714871e-01f, 1.45560309e-01f, 1.36900228e-02f, -4.08330142e-01f, -3.17710489e-01f, 1.79559514e-01f, -8.62279534e-03f, 7.63425604e-02f, -8.10781866e-02f, 4.72783059e-01f, 1.06157832e-01f, -2.86499858e-01f, 5.18932268e-02f, 6.01660796e-02f, -1.70936614e-01f, -5.58866821e-02f, 3.84086758e-01f, 2.29985356e-01f, 4.22619603e-04f, -6.13691285e-03f, -4.88807678e-01f, 4.51210022e-01f, -1.72285989e-01f, -3.06137681e-01f, -2.40203768e-01f, -2.59677708e-01f, 1.12365559e-01f, -2.93499053e-01f, 1.53417587e-01f, -1.79355353e-01f, 1.68395918e-02f, 2.66647995e-01f, 2.50472873e-01f, -2.10935827e-02f, 8.12343135e-02f, -7.48695582e-02f, -9.11828801e-02f, 1.35126233e-01f, 4.36170846e-02f, -2.49658935e-02f, 1.29024982e-01f, 3.42979401e-01f, -4.85631041e-02f, -2.66546249e-01f, -6.50407970e-02f, 5.00210933e-03f, 5.56521788e-02f, 5.65322340e-02f, 7.10275546e-02f, 3.08284819e-01f, 3.04279506e-01f, -6.65841699e-02f, -1.82859913e-01f, -6.54360056e-02f, -6.57839775e-02f, 1.23034105e-01f, -3.12004745e-01f, -2.42166281e-01f, -1.86502114e-01f, 1.61207438e-01f, 2.00645313e-01f, 1.44153193e-01f, 8.43822435e-02f, 7.72991180e-02f, -1.50610067e-04f, 3.04516479e-02f, -1.46640316e-01f, -5.97867891e-02f, 3.26858252e-01f, -8.79014283e-02f, 8.75743292e-03f, -2.09525138e-01f, -5.61674237e-02f, 5.54683916e-02f, -2.36350484e-02f, -8.80187284e-03f, 3.53443474e-01f, -8.98971483e-02f, 1.99576214e-01f, 4.38509276e-03f, 1.94507480e-01f, -1.19640902e-02f, 8.58133584e-02f, 1.86786547e-01f, -2.97541440e-01f, 2.00286880e-01f, -3.17463338e-01f, -2.60760665e-01f, -2.88951695e-01f, -3.23765203e-02f, -2.05739290e-02f, -2.73293145e-02f, -2.80576386e-02f, 1.39065152e-02f, -5.71658574e-02f, -1.62317660e-02f, 3.20648581e-01f, -4.34376532e-03f, -3.14783990e-01f, -9.49703809e-03f, -7.01790377e-02f, -1.08395919e-01f, -1.03194276e-02f, -1.77990139e-01f, 1.18345141e-01f, -5.45368269e-02f, -9.02379528e-02f, 1.17062770e-01f, 1.37565508e-01f, -1.87907830e-01f, 8.33181664e-02f, 3.05321932e-01f, -1.48762643e-01f, -3.00388515e-01f, -2.39834234e-01f, -9.60685983e-02f, 6.19864985e-02f, 5.11191003e-02f, -2.69282222e-01f, -4.11924571e-01f, -2.42645308e-01f, -5.26000224e-02f, 4.72842380e-02f, 1.72763795e-01f, 2.38759384e-01f, 5.84087037e-02f, -2.03650206e-01f, 1.96700484e-01f, -1.63545683e-01f, 1.20844647e-01f, 1.75583288e-01f, 4.25221324e-02f, 8.56674183e-03f, -1.23436548e-01f, -1.67646378e-01f, -4.80826125e-02f, 8.23602825e-02f, -1.73792556e-01f, 6.61970899e-02f, 1.32362664e-01f, 4.61619526e-01f, -2.21964315e-01f, -2.24073842e-01f, 2.92379230e-01f, 1.39640808e-01f, -1.81248456e-01f, 1.05167322e-01f, -2.11833920e-02f, 2.43525580e-01f, 1.99780017e-01f, 1.44198939e-01f, -2.14206353e-01f, -2.21178439e-02f, -1.36121258e-01f, 2.11946100e-01f, -1.40537813e-01f, 3.86323363e-01f, -1.28279835e-01f, 1.97982267e-01f, 2.77590662e-01f, 1.03963360e-01f, 2.04407960e-01f, -2.36580327e-01f, -2.28677392e-01f, -2.62060523e-01f, -1.71933696e-02f, -2.52140015e-02f, -1.35366976e-01f, -2.63913751e-01f, 2.50644028e-01f, 7.88673460e-02f, -2.69424289e-01f, -9.96130258e-02f, -2.09804595e-01f, -1.92955658e-02f, 2.84497172e-01f, 2.99063981e-01f, -1.47069395e-01f, -8.59907642e-02f, 9.67252403e-02f, -2.06109062e-02f, 1.71492070e-01f, -1.51626736e-01f, 4.45760563e-02f, -2.82885641e-01f, 1.76544026e-01f, -4.14592586e-03f, -2.28114456e-01f, -9.29157212e-02f, 1.65448278e-01f, -9.34808552e-02f, 2.30321065e-01f, -2.07136348e-01f, -3.30113918e-02f, -2.66133882e-02f, 2.68219411e-01f, 2.45269641e-01f, 1.19276838e-02f, -2.88581640e-01f, 1.25811979e-01f, -1.92375332e-01f, 5.96819744e-02f, -2.47330979e-01f, -4.41915482e-01f, 5.42087965e-02f, -3.48494877e-03f, -1.09872997e-01f, 1.67279363e-01f, 2.49489516e-01f, 1.90857351e-01f, -2.57660776e-01f, 7.52856806e-02f, -3.34447265e-01f, 1.76501155e-01f, -5.26409969e-03f, 1.11403264e-01f, -2.82439768e-01f};
static const float CRNN2_BIH[64] = {-2.29771912e-01f, 2.29150161e-01f, -1.35453474e-02f, 1.38682976e-01f, 1.92877308e-01f, 1.54646128e-01f, 1.25017539e-01f, -4.97503057e-02f, -6.83553293e-02f, 1.28253594e-01f, 2.65923560e-01f, 2.22154707e-01f, 3.02581310e-01f, 3.75185847e-01f, 3.70059013e-01f, -7.92586356e-02f, -8.16137344e-03f, 8.60251486e-02f, 1.29695674e-02f, 6.14714138e-02f, 3.21732424e-02f, 3.34239691e-01f, 9.54101384e-02f, 3.63716513e-01f, -3.47868428e-02f, -1.59967929e-01f, 9.07294601e-02f, 1.88136294e-01f, 4.19670343e-02f, -2.31688004e-02f, 3.54532272e-01f, 3.00655931e-01f, -8.31427872e-02f, 1.50562510e-01f, -7.05625564e-02f, 1.20249808e-01f, -1.78781494e-01f, -8.76073316e-02f, 1.50635540e-01f, 7.45816454e-02f, -6.67329058e-02f, -2.52486736e-01f, -1.24874227e-02f, -7.95733631e-02f, -9.86905098e-02f, -1.42618001e-01f, 6.18150905e-02f, -1.80922225e-02f, -3.03142630e-02f, -7.52083659e-02f, 2.42047026e-04f, -1.55482858e-01f, 2.09361151e-01f, 2.49951288e-01f, 2.89427102e-01f, 1.56347066e-01f, 2.28573103e-02f, -4.01781537e-02f, 1.40317991e-01f, -5.24689816e-02f, 3.14481646e-01f, 3.41441222e-02f, -9.47857723e-02f, 3.08320072e-04f};
static const float CRNN2_BHH[64] = {1.91004246e-01f, 2.17680201e-01f, 4.03360836e-02f, -8.34791288e-02f, 2.90576935e-01f, 1.98711380e-01f, 2.18922168e-01f, -1.63494036e-01f, 1.18123047e-01f, 3.24362963e-01f, -1.50304809e-01f, 3.21327269e-01f, -8.81927311e-02f, 6.73353001e-02f, 1.62969172e-01f, 1.26047298e-01f, 2.04766855e-01f, -4.83534150e-02f, 2.56623745e-01f, 1.95441663e-01f, 8.99677575e-02f, -1.33230567e-01f, 3.59595597e-01f, 2.93369237e-02f, 2.57947650e-02f, 3.34085107e-01f, -7.16659203e-02f, 3.05297166e-01f, 2.95334220e-01f, -5.93647473e-02f, 8.17704275e-02f, 1.52264014e-01f, 2.85710394e-02f, 2.59437174e-01f, 2.18541902e-02f, -1.51004434e-01f, -8.02374333e-02f, -1.31614447e-01f, 3.13850641e-01f, -8.17323551e-02f, -2.61454999e-01f, -2.27045342e-01f, 1.52991906e-01f, 1.25697643e-01f, 1.42416432e-01f, -1.22768223e-01f, -4.77006584e-02f, 1.21979468e-01f, 1.42510489e-01f, -3.08800824e-02f, 2.69186735e-01f, -4.82715890e-02f, -8.44813734e-02f, 5.50445393e-02f, -7.76147172e-02f, 1.42904431e-01f, 1.64997295e-01f, 3.54892492e-01f, 8.78684968e-02f, 9.71213952e-02f, -5.39545044e-02f, 6.92399740e-02f, 9.76326391e-02f, 3.36119934e-04f};
static const float CRNN2_HW[32] = {-1.64315611e-01f, 2.63729542e-01f, 4.53483969e-01f, -2.11206064e-01f, -9.74531025e-02f, 3.21482837e-01f, 4.23048902e-03f, -4.39603776e-01f, -7.57187903e-02f, -5.97894154e-02f, -5.44309393e-02f, 1.11902885e-01f, -4.08704281e-01f, 4.45465773e-01f, -2.49378607e-01f, 3.43268901e-01f, 4.01269317e-01f, -2.45170981e-01f, -4.08321679e-01f, 1.31594285e-01f, 3.69239561e-02f, 7.42010549e-02f, -5.91759682e-02f, 2.55510658e-01f, 4.40735416e-03f, 1.54904678e-01f, 3.71087044e-02f, -3.40247899e-01f, 3.37532729e-01f, -4.19725150e-01f, 2.99692959e-01f, -5.05212307e-01f};
static const float CRNN2_HB[2] = {-1.01722308e-01f, 1.89891830e-01f};
